svm_type c_svc
kernel_type rbf
gamma 0.03125
nr_class 2
total_sv 471
rho -6.10791
label 1 -1
probA -4.11111
probB -0.689016
nr_sv 182 289
SV
0.9863645744672034 1:0.161705 5:0.347527 17:0.351071 18:0.539013 24:0.765966 65:0.80852 120:0.723412 128:0.638316 144:0.691508 157:0.680864 164:0.80852 175:0.638316 184:0.638316 298:0.78725 300:0.638316 329:0.702142 355:0.80852 409:0.80852 451:0.539013 470:0.80852 478:0.510644 503:0.80852 533:0.638316 538:0.80852 579:0.457452 583:0.723412 592:1 597:0.80852 610:0.723412 613:0.78725 651:0.57448 665:0.680864 666:0.617029 694:0.702142 716:0.680864 765:1 783:0.80852 797:0.617029 807:0.617029 809:0.352155 810:0.104391 811:0.706173 812:0.073543 813:0.563965 814:0.606017 815:0.220239 816:0.244038 817:0.13089 818:0.49452 819:0.369245 820:0.209047 821:0.791046 822:0.57522 823:0.802895 824:0.332858 825:0.742707 826:0.862331 827:0.44852 828:0.56372 829:0.423254 830:0.692197 831:0.274788 832:0.407647 833:0.146821 834:0.0889383 835:0.329743 836:0.553379 837:0.237595 838:0.313093 
0.4078361465747553 3:0.377771 4:0.644433 17:0.366663 28:0.366663 47:0.511109 66:0.377771 79:0.511109 91:0.733327 130:0.666667 137:0.511109 172:0.544443 195:0.711104 206:0.562953 240:0.562953 251:1 252:0.755542 296:0.562953 297:0.711104 368:0.477769 387:0.933305 462:0.644433 492:1 499:0.755542 500:0.666667 508:0.777782 562:0.562953 572:0.477769 590:0.866659 602:0.844429 619:0.688883 629:0.511109 662:0.733327 664:0.711104 668:0.755542 692:0.644433 725:0.733327 759:0.733327 786:0.544443 794:0.511109 809:0.492732 810:0.244916 811:0.705866 812:0.349458 813:0.538998 814:0.595798 815:0.33155 816:0.359571 817:0.345495 818:0.48149 819:0.215476 820:0.314774 821:0.577145 822:0.696346 823:0.55986 824:0.732352 825:0.72929 826:0.696259 827:0.408694 828:0.342118 829:0.381078 830:0.11251 831:0.289794 832:0.411625 833:0.581572 834:0.466434 835:0.611434 836:0.497808 837:0.463233 838:0.662682 
0.1961777196089474 19:0.569455 23:0.833348 26:0.569455 28:0.458337 29:0.805556 39:0.638898 43:0.916675 45:0.86112 53:0.43056 56:0.805556 63:0.888896 101:0.55556 190:1 200:1 278:0.703704 346:0.61111 354:0.597222 401:0.944444 420:0.944444 433:0.944444 439:0.833348 532:0.703704 535:1 545:0.597222 547:1 552:0.944444 650:0.944444 675:0.833348 750:0.666667 809:0.503913 810:0.439554 811:0.496755 812:0.314359 813:0.771556 814:0.644219 815:0.650078 816:0.577346 817:0.453885 818:0.451719 819:0.686995 820:0.346564 821:0.200289 822:0.452666 823:0.153444 824:0.344426 825:0.319805 826:0.416268 827:0.566056 828:0.27585 829:0.694249 830:0.402028 831:0.563507 832:0.609953 833:0.5754 834:0.705148 835:0.449726 836:0.74239 837:0.478083 838:0.434736 
1.701578125209979 10:0.340432 13:0.617029 15:0.40426 16:0.40426 29:0.617029 47:0.489374 52:0.361706 61:0.436183 67:0.468089 104:0.510644 110:0.361706 116:0.80852 134:0.659588 173:0.489374 221:0.80852 225:0.361706 236:0.659588 237:0.393625 265:0.468089 315:0.468089 341:0.468089 448:0.723412 455:0.40426 477:0.539013 492:0.478737 505:0.765966 531:0.40426 539:0.78725 600:0.80852 619:0.659588 620:0.40426 643:0.702142 645:0.702142 657:0.659588 689:0.744706 708:0.765966 710:0.80852 721:0.680864 728:0.765966 757:0.468089 778:0.457452 809:0.74025 810:0.479942 811:0.56942 812:0.575742 813:0.795763 814:0.578346 815:0.297337 816:0.427172 817:0.59778 818:0.400836 819:0.413521 820:0.553187 821:0.319149 822:0.2418 823:0.516357 824:0.141564 825:0.424858 826:0.521037 827:0.457146 828:0.483082 829:0.262593 830:0.593168 831:0.370819 832:0.389919 833:0.735297 834:0.828131 835:0.573568 836:1 837:0.456807 838:0.583838 
1.547059167641533 6:0.550717 7:0.347824 8:0.67391 17:0.358694 79:0.5 80:0.550717 104:0.521732 131:0.445654 145:0.695648 166:0.521732 188:0.630427 296:0.550717 297:0.695648 353:0.413038 364:0.826075 372:0.760876 379:0.521732 464:0.826075 479:0.478253 506:0.521732 508:0.760876 530:0.576081 553:0.782598 555:0.489132 559:0.478253 565:0.550717 603:0.630427 608:0.445654 626:0.652177 629:0.5 630:0.760876 649:0.760876 656:0.782598 681:0.521732 753:0.86956 786:0.53261 794:0.5 807:0.630427 809:0.398189 810:0.332532 811:0.353004 812:0.662713 813:0.255174 814:0.191794 815:0.816073 816:0.699365 817:0.606627 818:0.398569 819:0.907543 820:0.677602 821:0.384101 822:0.46204 823:0.567873 824:0.281098 825:0.1682 826:0.650842 827:0.222584 828:0.357977 829:0.243012 830:0.23639 831:0.463227 832:0.269535 833:0.556252 834:0.355078 835:0.586293 836:0.228377 837:0.481704 838:0.566621 
1.822018373411838 80:0.617875 134:0.756092 137:0.560973 141:0.829253 216:0.829253 233:0.451215 259:0.926813 270:0.365848 301:1 304:1 328:0.829253 343:0.926813 366:0.829253 369:0.617875 374:0.878033 375:0.707305 380:0.853663 398:0.560973 414:0.829253 460:0.78048 464:0.926813 476:0.853663 497:0.829253 561:0.804871 580:0.804871 610:0.829253 637:0.902431 809:0.595847 810:0.399364 811:0.438076 812:0.395474 813:0.487681 814:0.364341 815:0.48691 816:0.411704 817:0.549054 818:0.186289 819:0.481396 820:0.634163 821:0.171937 822:0.140029 823:0.336211 824:0.325908 825:0.141102 826:0.322498 827:0.863369 828:0.703266 829:0.776686 830:0.453245 831:0.810409 832:0.855691 833:0.288004 834:0.250726 835:0.282213 836:0.492172 837:0.305544 838:0.170499 
0.1434936154785613 1:0.353491 3:0.395349 6:0.589147 16:0.44186 23:0.697687 43:0.767449 52:0.395349 64:0.883721 67:0.511627 98:0.46512 120:0.790698 123:0.883721 126:0.813972 131:0.476753 168:0.883721 191:0.511627 232:0.430236 236:0.720937 265:0.511627 272:0.837209 291:1 370:0.860473 377:0.953506 394:0.55814 398:0.534891 401:0.790698 435:0.860473 438:0.813972 439:0.697687 443:0.883721 482:0.488376 512:0.860473 755:0.744192 809:0.870263 810:0.40945 811:0.688851 812:0.532314 813:0.792113 814:0.56265 815:0.0921178 816:0.528504 817:0.15085 818:0.545303 819:0.453295 820:0.38903 821:0.285824 822:0.435126 823:0.645434 824:0.468022 825:0.397949 826:0.682641 827:0.593879 828:0.562381 829:0.606719 830:0.6513 831:0.33811 832:0.599041 833:0.562033 834:0.525479 835:0.310619 836:0.526419 837:0.422767 838:0.276856 
0.2964635274262201 4:0.617029 23:0.638316 43:0.702142 45:0.659588 57:0.702142 75:0.446817 82:0.702142 93:0.723412 104:0.510644 111:0.78725 131:0.436183 138:0.80852 277:0.638316 284:0.510644 296:0.539013 327:0.80852 352:0.617029 371:0.702142 390:0.539013 458:0.638316 471:0.680864 487:0.78725 530:0.563838 555:0.478737 581:0.80852 600:0.80852 604:0.500012 611:0.659588 649:0.744706 656:0.765966 671:0.723412 677:0.80852 678:0.744706 679:0.723412 686:0.744706 690:0.638316 695:0.617029 703:0.638316 709:0.638316 730:0.659588 744:0.659588 756:0.42554 776:0.723412 809:0.509254 810:0.35647 811:0.379057 812:0.492252 813:0.647114 814:0.317689 815:0.640131 816:0.890294 817:0.653788 818:0.439834 819:0.540956 820:0.688578 821:0.453857 822:0.122438 823:0.494495 824:0.0580869 825:0.4549 826:0.445131 827:0.381391 828:0.507739 829:0.327344 830:0.62029 831:0.302414 832:0.50212 833:0.270573 834:0.183362 835:0.646701 836:0.680763 837:0.466009 838:0.498243 
1.898787325768697 2:0.375001 6:0.575746 55:0.659078 80:0.575746 95:0.363632 131:0.465908 226:1 238:0.659078 250:0.575746 253:0.659078 296:0.575746 363:0.575746 367:0.795457 381:0.659078 395:0.749992 416:0.545444 423:0.772712 427:1 428:0.409083 455:0.43181 503:0.863619 511:0.863619 530:0.602263 531:0.43181 539:0.8409 542:0.397722 591:0.772712 609:0.727264 662:0.749992 754:0.556816 761:0.772712 805:0.43181 809:0.608311 810:0.582508 811:0.785221 812:0.473494 813:0.762274 814:0.837993 815:0.616813 816:0.427635 817:0.347033 818:0.238649 819:0.410628 820:0.416773 821:0.408748 822:0.451835 823:0.532357 824:0.519363 825:0.262899 826:0.555529 827:0.510757 828:0.700658 829:0.434846 830:0.646309 831:0.280108 832:0.363146 833:0.454318 834:0.277934 835:0.470462 836:0.531784 837:0.531691 838:0.383658 
1.282361967018549 9:0.499989 17:0.374996 48:0.499989 69:0.863619 120:0.772712 130:0.681817 150:0.863619 152:0.749992 163:1 170:0.795457 263:0.795457 273:0.681817 296:0.575746 315:0.499989 374:0.818165 380:0.795457 418:0.499989 433:0.772712 468:0.43181 474:0.499989 493:0.795457 500:0.681817 501:0.522724 509:0.443177 521:0.863619 530:0.602263 535:0.818165 571:0.749992 585:0.8409 588:0.727264 648:0.704538 656:0.818165 662:0.749992 707:0.818165 739:0.749992 774:0.42045 775:0.727264 809:0.599385 810:0.350828 811:0.581638 812:0.407908 813:0.45085 814:0.454314 815:0.524764 816:0.555935 817:0.267907 818:0.291229 819:0.470623 820:0.386782 821:0.373573 822:0.435659 823:0.702082 824:0.280236 825:0.541051 826:0.770605 827:0.540329 828:0.470464 829:0.294366 830:0.756154 831:0.365382 832:0.196624 833:0.763625 834:0.710862 835:0.681787 836:0.477676 837:0.454525 838:0.831435 
2 1:0.111766 9:0.970586 10:0.235296 14:0.372549 16:0.279412 36:0.632353 87:0.558824 96:0.705899 145:0.470592 165:0.2402 182:0.514718 188:0.426471 192:0.279412 216:0.5 245:0.745098 248:0.33824 282:0.470592 286:0.911774 303:0.632353 316:0.558824 335:0.372549 345:1 353:0.279412 380:0.514718 388:0.529412 394:0.705882 404:0.514718 407:0.372549 424:0.352941 430:0.279412 437:0.33824 438:0.514718 449:0.61764 463:0.441184 497:1 525:0.372549 527:0.514718 538:0.558824 554:0.323529 566:0.470592 616:0.529412 617:0.558824 640:0.33824 652:0.5 687:0.372549 706:0.529412 715:0.5 738:0.529412 775:0.470592 809:0.447298 810:0.413292 811:0.571518 812:0.617079 813:0.405178 814:0.337582 815:0.669569 816:0.803173 817:0.633399 818:0.366619 819:0.697224 820:0.675158 821:0.279699 822:0.292185 823:0.491101 824:0.264679 825:0.276583 826:0.519396 827:0.669681 828:0.645584 829:0.390966 830:0.548771 831:0.571605 832:0.406242 833:0.382006 834:0.611892 835:0.507166 836:0.828605 837:0.301499 838:0.609196 
2 1:0.41081 6:0.342352 7:0.216224 10:0.216224 14:0.684679 15:0.256764 28:0.222981 41:0.256764 50:0.405424 52:0.229736 58:0.310824 66:0.229736 75:0.567568 93:0.459472 99:0.33785 136:0.35812 147:0.479747 190:0.4865 196:0.342352 226:0.297305 233:0.250009 244:0.864864 252:0.459472 253:0.391903 257:0.432448 261:0.405424 269:0.513528 284:0.324333 300:0.405424 317:0.405424 344:0.472997 348:0.54056 401:0.459472 411:0.527047 429:0.229736 439:0.405424 455:0.256764 464:0.513528 473:0.459472 477:0.342352 532:0.342352 544:0.500019 546:0.472997 570:0.648682 593:0.459472 602:0.513528 605:0.459472 620:0.256764 661:0.27028 663:0.459472 668:0.459472 669:0.297305 673:0.459472 675:0.405424 714:0.500019 715:0.459472 742:0.527047 746:0.391903 754:0.331096 756:0.27028 800:0.385146 809:0.494631 810:0.274249 811:0.433981 812:0.637118 813:0.559606 814:0.373901 815:0.429676 816:0.543285 817:0.420088 818:0.474292 819:0.499926 820:0.533694 821:0.524268 822:0.485629 823:0.558473 824:0.538557 825:0.330206 826:0.524048 827:0.496945 828:0.38755 829:0.60866 830:0.426687 831:0.649786 832:0.596757 833:0.329742 834:0.579054 835:0.273081 836:0.795461 837:0.269991 838:0.317839 
1.016855482406404 9:0.523815 32:0.523815 67:0.523815 68:0.833363 69:0.904773 76:0.857153 98:0.4762 106:0.523815 121:0.76192 123:0.904773 156:0.833363 186:0.76192 217:0.857153 224:0.369056 230:0.738111 245:0.603182 266:0.714307 267:0.809534 315:0.523815 362:0.690485 377:0.97622 401:0.809534 434:0.690485 483:0.428577 484:0.785731 517:0.904773 552:0.809534 572:0.511911 583:0.809534 593:0.809534 594:0.690485 608:0.48811 625:0.833363 680:0.4762 742:0.928591 758:0.845255 774:0.440485 798:0.690485 809:0.656013 810:0.44099 811:0.495414 812:0.29354 813:0.733074 814:0.459913 815:0.0580867 816:0.284597 817:0.38741 818:0.294899 819:0.373203 820:0.455842 821:0.678742 822:0.278157 823:0.646845 824:0.224265 825:0.479446 826:0.548182 827:0.499243 828:0.53782 829:0.175429 830:0.733427 831:0.301365 832:0.200976 833:0.310651 834:0.619473 835:0.844764 836:0.540284 837:0.530023 838:0.928672 
0.142223505737065 1:0.176746 12:0.674419 39:0.534891 45:0.720937 49:0.523265 66:0.395349 77:0.674419 93:0.790698 94:0.767449 108:0.790698 144:0.755826 149:0.744192 150:0.883721 152:0.767449 184:0.697687 209:0.720937 220:0.813972 237:0.430236 283:0.697687 327:0.883721 469:0.790698 479:0.511627 481:0.360469 483:0.418605 487:0.860473 534:0.720937 556:0.744192 562:0.589147 611:0.720937 643:0.767449 682:0.860473 714:0.860473 778:1 779:0.906985 801:0.395349 809:0.687267 810:0.554429 811:0.332362 812:0.537835 813:0.630968 814:0.436149 815:0.377322 816:0.147377 817:0.741751 818:0.303623 819:0.612879 820:0.490724 821:0.482152 822:0.475795 823:0.289355 824:0.418151 825:0.404339 826:0.346611 827:0.574796 828:0.591601 829:0.571271 830:0.485245 831:0.393885 832:0.613927 833:0.275015 834:0.25148 835:0.573347 836:0.600387 837:0.516705 838:0.712737 
0.05783105554415884 3:0.424997 19:0.512505 26:0.512505 62:0.724995 66:0.424997 101:0.5 102:1 116:0.949992 129:1 134:0.775002 140:0.949992 173:0.575003 190:0.899993 208:0.899993 214:0.949992 233:0.4625 236:0.775002 246:0.949992 265:0.549995 273:0.750008 283:0.750008 284:0.599995 354:0.537496 372:0.875013 431:0.825001 444:0.925001 451:0.633328 464:0.949992 479:0.549995 550:0.949992 594:0.724995 618:1 657:0.775002 710:0.949992 757:0.549995 783:0.949992 809:0.611332 810:0.37203 811:0.615087 812:0.46579 813:0.732397 814:0.496533 815:0.202272 816:0.299953 817:0.312748 818:0.458147 819:0.442257 820:0.423634 821:0.665206 822:0.678311 823:0.663489 824:0.626624 825:0.560744 826:0.659972 827:0.353148 828:0.595965 829:0.403669 830:0.606856 831:0.30309 832:0.486582 833:0.424729 834:0.236329 835:0.509433 836:0.621274 837:0.556203 838:0.425311 
0.0222104798468547 2:0.134145 6:0.617875 7:0.39024 17:0.402435 23:0.731707 28:0.402435 40:0.78048 43:0.804871 47:0.560973 52:0.414627 72:0.804871 79:0.560973 95:0.39024 120:0.829253 127:0.536575 132:0.617875 143:0.804871 191:0.536575 197:0.829253 222:0.878033 281:0.731707 311:0.707305 462:0.707305 543:0.707305 627:0.341458 633:0.926813 668:0.829253 674:0.853663 721:0.78048 723:0.926813 731:0.731707 743:0.902431 762:0.617875 809:0.747012 810:0.434575 811:0.615133 812:0.500926 813:0.741219 814:0.513381 815:0.381449 816:0.559647 817:0.296826 818:0.467928 819:0.584114 820:0.431449 821:0.351351 822:0.460618 823:0.603143 824:0.446035 825:0.479239 826:0.69536 827:0.422161 828:0.434036 829:0.197184 830:0.330253 831:0.230954 832:0.3287 833:0.606347 834:0.636339 835:0.619561 836:0.518848 837:0.521626 838:0.576111 
2 13:0.432822 16:0.283573 85:0.432822 88:0.537296 113:0.378097 128:0.447754 132:0.378097 148:0.567145 149:0.4776 184:0.447754 192:0.283573 207:0.552226 212:0.716411 241:0.895539 248:0.343277 254:0.552226 255:0.522383 264:0.567145 282:0.4776 287:0.378097 302:0.567145 315:0.328347 359:0.507446 364:0.567145 388:0.537296 396:0.611931 401:0.507446 407:0.378097 424:0.358197 425:0.350739 463:0.447754 480:0.507446 497:0.507446 500:0.447754 546:0.522383 560:0.507446 575:0.537296 613:0.552226 619:0.462676 622:0.378097 630:0.522383 640:0.343277 646:0.462676 662:0.492525 669:0.328347 696:0.552226 749:0.522383 809:0.475485 810:0.320156 811:0.640532 812:0.347149 813:0.405692 814:0.476819 815:0.629878 816:0.775219 817:0.483215 818:0.512276 819:0.501446 820:0.587686 821:0.170055 822:0.0356869 823:0.515022 824:0.00809752 825:0.485973 826:0.504794 827:0.65474 828:0.532948 829:0.438463 830:0.372892 831:0.52501 832:0.366518 833:0.339948 834:0.529196 835:0.424541 836:0.627628 837:0.273678 838:0.560511 
0.7817699787748859 7:0.4 17:0.4125 28:0.4125 47:0.575003 50:0.750008 79:0.575003 104:0.599995 137:0.575003 151:0.925001 172:0.612505 218:0.633328 233:0.4625 240:0.633328 285:0.633328 353:0.474996 457:0.549995 482:0.525001 492:0.562506 515:0.612505 574:0.875013 584:0.549995 590:0.975001 661:1 669:0.549995 699:0.899993 708:0.899993 738:0.899993 746:0.724995 785:0.899993 809:0.727762 810:0.351102 811:0.617434 812:0.603395 813:0.503656 814:0.458191 815:0.344272 816:0.461372 817:0.361524 818:0.467817 819:0.457928 820:0.452652 821:0.532424 822:0.610576 823:0.627255 824:0.622123 825:0.661018 826:0.73404 827:0.419509 828:0.464937 829:0.347894 830:0.493028 831:0.0580112 832:0.32022 833:0.610292 834:0.469879 835:0.73194 836:0.425544 837:0.735632 838:0.80915 
2 25:0.354834 37:0.467738 62:0.467738 71:0.362906 85:0.467738 101:0.32258 109:0.5 112:0.408598 134:0.5 156:0.564523 173:0.370969 194:0.629032 223:0.532258 229:0.564523 233:0.298387 237:0.298387 238:0.467738 264:0.612897 310:0.516128 322:0.612897 367:0.564523 370:0.596774 375:0.467738 377:0.661296 402:0.580639 408:0.516128 419:1 420:0.548382 421:0.346771 434:0.467738 440:0.580639 548:0.370969 549:0.467738 588:0.516128 629:0.370969 635:0.580639 636:0.379033 673:0.548382 676:0.467738 723:0.612897 764:0.532258 768:0.612897 782:0.564523 789:0.629032 790:0.532258 803:0.564523 809:0.837641 810:0.868275 811:0.751239 812:0.33626 813:0.961737 814:0.692421 815:0.0957156 816:0.51405 817:0.507779 818:0.473029 819:0.506807 820:0.582743 821:0.595825 822:0.446053 823:0.435105 824:0.481862 825:0.490146 826:0.334797 827:0.577222 828:0.735495 829:0.403898 830:0.614622 831:0.375869 832:0.497335 833:0.504696 834:0.706542 835:0.540784 836:0.559933 837:0.575973 838:0.563409 
1.672685805911853 1:0.161705 10:0.340432 16:0.40426 25:0.468089 51:0.539013 54:0.42554 55:0.617029 183:0.80852 192:0.40426 218:0.539013 236:0.659588 249:0.78725 256:0.723412 262:0.80852 294:0.744706 301:0.872366 329:0.702142 332:0.617029 353:0.40426 478:0.510644 495:0.659588 507:0.723412 513:0.489374 514:0.80852 523:0.829804 524:0.659588 558:0.539013 581:0.80852 653:0.510644 657:0.659588 727:0.744706 735:0.723412 740:0.702142 776:0.723412 784:0.659588 806:0.659588 809:0.189693 810:0.346797 811:0.471686 812:0.492692 813:0.354161 814:0.345532 815:0.663749 816:0.958419 817:0.650049 818:0.587786 819:0.628348 820:0.723 821:0.457708 822:0.251603 823:0.527815 824:0.431483 825:0.474 826:0.518002 827:0.284007 828:0.320825 829:0.326151 830:0.399133 831:0.144205 832:0.279367 833:0.612161 834:0.37766 835:0.622747 836:0.508037 837:0.546168 838:0.630819 
0.8622236986155613 9:0.511627 17:0.383724 19:0.476753 28:0.383724 93:0.790698 94:0.767449 101:0.46512 103:0.744192 104:0.55814 131:0.476753 144:0.755826 192:0.44186 219:0.744192 254:0.860473 265:0.511627 319:0.883721 340:0.813972 363:0.589147 457:0.511627 483:0.837209 502:0.767449 554:0.511627 555:0.523265 556:0.744192 572:1 598:0.744192 674:0.813972 716:0.744192 758:0.825588 786:0.569777 794:0.534891 799:0.511627 809:0.639586 810:0.39576 811:0.78765 812:0.300603 813:0.639445 814:0.662816 815:0.2927 816:0.441018 817:0.333306 818:0.260594 819:0.384687 820:0.361242 821:0.651032 822:0.451419 823:0.55208 824:0.279262 825:0.414603 826:0.583591 827:0.433295 828:0.480629 829:0.403988 830:0.361163 831:0.372067 832:0.442159 833:0.103377 834:0.118846 835:0.3899 836:0.36126 837:0.172224 838:0.406308 
2 2:0.458332 5:0.27223 9:0.36667 15:0.31667 28:0.275006 33:0.383343 41:0.31667 47:0.383343 64:0.633341 184:0.500015 195:0.533344 196:0.422227 246:0.633341 274:0.599989 286:0.516678 297:0.533344 333:1 335:0.422227 341:0.36667 346:0.36667 359:0.566673 387:0.7 417:0.600007 484:0.550012 493:0.583354 494:0.250004 501:0.383343 508:0.583354 512:0.61668 517:0.633341 532:0.422227 543:0.48334 588:0.533344 598:0.533344 609:0.533344 640:0.383343 646:0.516678 658:0.541682 668:0.566673 678:0.583354 722:0.500015 723:0.633341 744:0.516678 808:0.325007 809:0.724704 810:0.416447 811:0.778745 812:0.61258 813:0.700492 814:0.696561 815:0.35019 816:0.563389 817:0.292707 818:0.625885 819:0.580694 820:0.378061 821:0.275162 822:0.392106 823:0.414711 824:0.465693 825:0.331482 826:0.394122 827:0.654059 828:0.679799 829:0.609758 830:0.68875 831:0.373303 832:0.69304 833:0.429435 834:0.356082 835:0.537009 836:0.517156 837:0.592427 838:0.600555 
2 12:0.617029 33:0.489374 36:0.914904 48:0.468089 53:0.329794 87:0.80852 123:0.80852 130:0.638316 135:0.539013 157:0.680864 278:0.539013 309:0.723412 321:0.723412 344:0.744706 368:0.457452 380:0.744706 433:0.723412 438:0.744706 448:0.723412 478:0.510644 533:0.638316 536:0.489374 540:0.78725 566:0.680864 572:0.457452 598:0.680864 599:0.659588 653:0.510644 664:0.680864 668:0.723412 705:0.702142 726:0.489374 739:0.702142 743:0.78725 761:0.723412 770:0.765966 775:0.680864 782:0.744706 784:0.659588 809:0.564564 810:0.304034 811:0.42432 812:0.377708 813:0.563141 814:0.328781 815:0.557809 816:0.809192 817:0.420938 818:0.555739 819:0.406353 820:0.520253 821:0.228978 822:0.192231 823:0.611221 824:0.160415 825:0.691153 826:0.681828 827:0.544352 828:0.426668 829:0.53362 830:0.43959 831:0.276532 832:0.34284 833:0.632838 834:0.37623 835:0.383197 836:0.662295 837:0.556005 838:0.456109 
0.6461794896139496 1:0.706975 10:0.372096 16:0.44186 17:0.383724 28:0.383724 79:0.534891 112:0.589147 128:0.697687 134:0.720937 137:0.534891 190:0.837209 244:0.744192 249:0.860473 264:0.883721 275:0.813972 285:0.589147 314:0.589147 354:1 410:0.589147 421:1 431:0.767449 500:0.697687 545:1 547:0.837209 549:0.674419 558:0.589147 662:0.767449 691:0.767449 723:0.883721 746:0.674419 809:0.574967 810:0.323356 811:0.598835 812:0.454418 813:0.805992 814:0.672461 815:0.00537368 816:0.289817 817:0.223308 818:0.739196 819:0.331931 820:0.155672 821:0.624142 822:0.48809 823:0.559451 824:0.554074 825:0.332772 826:0.698643 827:0.678464 828:0.663555 829:0.634973 830:0.646051 831:0.454895 832:0.692149 833:0.280472 834:0.336716 835:0.380681 836:0.561599 837:0.419572 838:0.294711 
1.643233725077595 3:0.377771 16:0.422215 34:0.422215 130:0.666667 222:0.799986 273:0.666667 277:0.666667 309:0.755542 365:0.755542 374:0.799986 380:0.777782 387:0.933305 416:0.533324 433:0.755542 435:0.822215 451:0.562953 468:0.422215 476:0.777782 500:0.666667 502:0.733327 509:0.433329 512:0.822215 517:0.844429 532:0.562953 559:0.488879 587:0.566656 591:0.755542 627:0.311106 641:0.799986 722:0.666667 782:0.777782 788:0.5 805:0.422215 809:0.815205 810:0.480668 811:0.37821 812:0.524289 813:0.70336 814:0.324238 815:0.478262 816:0.682834 817:0.518082 818:0.591188 819:0.455399 820:0.546804 821:0.329319 822:0.286403 823:0.329376 824:0.474747 825:0.470889 826:0.340325 827:0.31226 828:0.632601 829:0.847552 830:0.589513 831:0.441961 832:0.890502 833:0.411619 834:0.354442 835:0.294023 836:0.634073 837:0.411535 838:0.211288 
1.062529242229041 12:0.828553 17:0.471422 19:0.585711 25:0.628556 33:0.657137 54:0.57142 58:0.657137 82:0.942844 93:0.971406 110:0.485703 220:1 270:0.428563 285:0.723793 361:1 446:0.857139 477:0.723793 555:0.642854 556:0.914272 604:0.671422 674:1 679:0.971406 690:0.857139 709:0.857139 735:0.971406 756:0.57142 759:0.942844 801:0.485703 809:0.671568 810:0.223311 811:0.0731971 812:0.264801 813:0.665739 814:0.138976 815:0.837201 816:0.719037 817:0.673358 818:0.553983 819:0.517807 820:0.652267 821:0.553928 822:0.37195 823:0.688143 824:0.54941 825:0.510276 826:0.521091 827:0.419799 828:0.239983 829:0.24399 830:0.199696 831:0.13936 832:0.520213 833:0.605365 834:0.567835 835:0.56393 836:0.776949 837:0.487818 838:0.483236 
1.302566935512919 1:0.152 2:0.22 3:0.339997 4:0.579996 5:0.326669 6:0.506663 7:0.32 8:0.620001 57:0.660001 61:0.410004 75:0.42 80:0.506663 92:0.679995 103:0.64 110:0.339997 128:0.600006 143:0.660001 225:0.339997 237:0.37 238:0.579996 257:0.64 297:0.64 328:0.679995 351:0.490004 411:0.780001 442:0.64 456:0.700011 500:0.600006 521:0.759994 556:0.64 641:0.719994 643:0.660001 651:0.540001 675:0.600006 676:0.579996 731:0.600006 786:0.490004 809:0.679944 810:0.496721 811:0.413326 812:0.621101 813:0.605198 814:0.405557 815:0.452695 816:0.53866 817:0.706645 818:0.671557 819:0.544094 820:0.588918 821:0.32471 822:0.306103 823:0.454545 824:0.225824 825:0.288716 826:0.558283 827:0.645877 828:0.640839 829:0.391253 830:0.488618 831:0.395302 832:0.362509 833:0.296468 834:0.168705 835:0.597072 836:0.20607 837:0.446833 838:0.726007 
2 2:0.336732 6:0.516999 14:0.516999 15:0.387749 35:0.591828 81:0.693866 148:0.775498 172:1 177:0.516999 240:0.516999 242:0.622442 244:0.653056 281:0.612246 284:0.489788 287:0.516999 370:0.755097 394:0.489788 418:0.448972 445:0.632649 458:0.612246 492:0.459185 529:0.469387 533:0.612246 571:0.673465 590:0.795913 593:0.693866 605:0.693866 640:0.469387 646:0.632649 652:0.693866 671:0.693866 702:0.397956 720:0.734682 777:0.448972 781:0.734682 798:0.591828 809:0.78833 810:0.39522 811:0.758685 812:0.423315 813:0.717043 814:0.537235 815:0.0314478 816:0.439317 817:0.247571 818:0.656802 819:0.115247 820:0.472884 821:0.437022 822:0.263524 823:0.595539 824:0.331463 825:0.516168 826:0.476558 827:0.629295 828:0.902463 829:0.588059 830:0.662401 831:0.523975 832:0.751999 833:0.411775 834:0.266208 835:0.35009 836:0.473597 837:0.453033 838:0.260494 
2 14:0.452374 19:0.366072 23:0.535715 26:0.366072 39:0.410713 47:0.410713 63:0.571424 99:0.446425 103:0.571424 160:0.571424 173:0.410713 177:0.452374 187:0.452374 190:0.642847 206:0.452374 234:0.401787 242:0.544637 244:0.571424 248:0.410713 251:0.401787 268:0.625004 295:0.452374 300:0.535715 397:0.964279 462:0.517849 481:0.276784 483:0.321423 487:0.66071 553:0.642847 567:0.410713 585:0.66071 597:0.678561 637:0.66071 654:1 658:0.580357 667:0.66071 694:0.589282 713:0.678561 715:0.607133 736:0.607133 793:0.625004 797:0.517849 804:0.589282 806:0.553568 809:0.059958 810:0.0524597 811:0.480307 812:0.167945 813:0.448239 814:0.353649 815:0.490702 816:0.614538 817:0.537665 818:0.5767 819:0.574076 820:0.55126 821:0.473941 822:0.43259 823:0.371335 824:0.378624 825:0.366707 826:0.460322 827:0.430724 828:0.509642 829:0.473462 830:0.48032 831:0.271691 832:0.578123 833:0.608975 834:0.569693 835:0.555813 836:0.640112 837:0.648476 838:0.54569 
0.6914626159127325 1:0.292311 2:0.211541 6:0.487181 10:0.615392 14:0.487181 15:0.365386 16:0.730772 35:0.557695 47:0.442316 72:0.634624 79:0.442316 80:0.487181 130:0.576936 165:0.314109 173:0.442316 179:0.730772 190:0.69231 236:0.596162 242:0.586543 244:0.615392 255:0.673095 262:0.730772 265:0.423078 296:0.487181 311:0.557695 331:0.673095 396:0.788479 411:0.75001 471:0.615392 543:0.557695 590:0.75001 633:0.730772 643:0.634624 690:0.576936 691:0.634624 696:0.711548 759:0.634624 767:0.653849 772:0.673095 773:0.615392 798:0.557695 809:0.683656 810:0.377665 811:0.580345 812:0.578344 813:0.686309 814:0.488896 815:0.35772 816:0.570732 817:0.568847 818:0.651908 819:0.391184 820:0.535147 821:0.364394 822:0.483327 823:0.376691 824:0.657474 825:0.491952 826:0.471444 827:0.405952 828:0.517195 829:0.541693 830:0.617981 831:0.397198 832:0.588795 833:0.64504 834:0.472879 835:0.320371 836:0.586642 837:0.337729 838:0.309651 
2 1:0.155101 5:1 10:0.979584 20:0.775498 34:0.387749 50:0.612246 61:0.418368 99:0.5102 122:0.734682 155:0.632649 156:0.714291 159:0.673465 165:1 168:0.775498 256:0.693866 265:0.448972 298:0.755097 397:0.551017 505:0.734682 509:0.795913 627:0.28571 651:0.551017 661:0.40816 698:0.877537 728:0.734682 743:0.755097 765:0.47959 800:0.581623 809:0.445787 810:0.355989 811:0.563613 812:0.410716 813:0.67733 814:0.571242 815:0.227201 816:0.243822 817:0.151778 818:0.296297 819:0.371329 820:0.294671 821:0.710274 822:0.576671 823:0.925124 824:0.536261 825:0.635049 826:0.883379 827:0.30659 828:0.405518 829:0.261602 830:0.48344 831:0.226036 832:0.287124 833:0.405249 834:0.37052 835:0.351782 836:0.60812 837:0.409068 838:0.359842 
1.400668677493828 17:0.336732 19:0.418368 25:0.448972 28:0.336732 40:0.653056 55:0.591828 85:0.591828 101:0.40816 120:0.693866 172:0.5 187:0.516999 191:0.448972 196:0.516999 197:0.693866 210:0.693866 238:0.591828 240:0.516999 253:0.591828 263:0.714291 297:0.653056 300:0.612246 344:0.714291 357:0.448972 359:0.693866 369:0.516999 457:0.897943 478:0.489788 494:0.306118 520:0.836736 541:0.516999 554:0.448972 596:0.673465 641:0.734682 651:0.551017 663:0.693866 679:0.693866 698:0.877537 754:1 786:1 808:0.397956 809:0.732741 810:0.47427 811:0.697894 812:0.234576 813:0.792486 814:0.627803 815:0.495322 816:0.518839 817:0.213513 818:0.300145 819:0.395715 820:0.355286 821:0.516294 822:0.545862 823:0.732626 824:0.606811 825:0.424792 826:0.751168 827:0.347093 828:0.361877 829:0.342763 830:0.382962 831:0.371698 832:0.246483 833:0.614572 834:0.767756 835:0.488071 836:0.586485 837:0.535855 838:0.660156 
1.851744718001977 2:0.114582 7:0.333328 17:0.343745 28:0.343745 47:0.479162 79:0.479162 93:0.708316 94:0.68749 103:0.666656 104:1 108:0.708316 131:0.427081 137:0.479162 172:0.510413 206:0.527765 207:0.770822 209:0.645824 240:0.527765 251:0.468747 365:0.708316 390:0.527765 482:0.437493 491:0.770822 492:0.468747 515:0.510413 562:0.527765 576:0.527765 590:0.812488 630:0.729166 636:0.489578 661:0.41666 683:0.666656 686:0.729166 713:0.791648 729:0.708316 786:0.510413 794:0.479162 809:0.455229 810:0.420833 811:0.682458 812:0.594706 813:0.609827 814:0.544235 815:0.557633 816:0.552305 817:0.420147 818:0.632434 819:0.508961 820:0.411073 821:0.561119 822:0.541976 823:0.591904 824:0.545183 825:0.49504 826:0.671348 827:0.2492 828:0.450855 829:0.311284 830:0.490313 831:0.0636246 832:0.365973 833:0.626037 834:0.443112 835:0.650935 836:0.628513 837:0.625236 838:0.771945 
1.405716274631849 2:0.289476 6:0.666667 7:0.421056 8:0.815798 11:0.815798 34:1 177:0.666667 223:0.868429 234:0.592116 242:0.802635 295:0.666667 367:0.921074 397:0.710533 468:1 548:0.605272 577:0.815798 585:0.973693 587:0.671053 591:0.894737 627:0.368422 694:0.868429 794:0.605272 804:0.868429 809:0.498531 810:0.325132 811:0.54181 812:0.382552 813:0.61433 814:0.427561 815:0.216161 816:0.502513 817:0.184429 818:0.765161 819:0.376903 820:0.425636 821:0.664174 822:0.604487 823:0.897387 824:0.656442 825:0.489609 826:0.747535 827:0.255235 828:0.41577 829:0.368434 830:0.549936 831:0.326417 832:0.359379 833:0.820796 834:0.825116 835:0.486664 836:0.718408 837:0.540384 838:0.636842 
0.153448855573925 9:0.594588 33:0.621625 67:0.594588 75:0.567568 82:0.891892 115:1 120:0.918911 191:0.594588 209:0.837839 215:0.837839 218:0.684679 232:1 254:1 272:0.972964 314:0.684679 315:0.594588 358:1 416:0.648643 419:0.837839 506:0.648643 522:1 528:0.972964 611:0.837839 627:0.378376 632:1 670:0.810818 706:0.972964 717:1 774:1 788:0.608114 809:0.589307 810:0.280966 811:0.649648 812:0.390933 813:0.417889 814:0.54154 815:0.326265 816:0.23229 817:0.0642954 818:0.203934 819:0.572604 820:0.139728 821:0.557221 822:0.656569 823:0.789869 824:0.456114 825:0.642101 826:1 827:0.532401 828:0.335144 829:0.469043 830:0.514888 831:0.298762 832:0.406502 833:0.513102 834:0.352367 835:0.229687 836:0.571974 837:0.426814 838:0.194824 
2 5:0.243777 9:0.328347 10:0.2388 14:0.378097 35:0.432822 39:0.343277 50:0.447754 74:0.343277 105:0.226862 125:0.537296 168:0.567145 172:0.365665 192:0.283573 197:0.507446 224:0.231338 240:0.378097 244:0.4776 245:0.378097 264:0.567145 267:0.507446 272:0.537296 282:0.4776 287:0.378097 295:0.378097 344:0.522383 345:0.507446 350:0.820867 357:0.328347 373:0.492525 424:0.358197 430:0.283573 457:0.328347 461:0.507446 466:0.756219 467:0.447754 474:0.328347 482:0.313425 485:0.567145 486:0.432822 490:0.552226 501:0.686577 507:0.507446 508:0.522383 588:0.955232 595:0.283573 636:0.350739 640:0.343277 692:0.432822 705:0.492525 719:0.567145 722:0.447754 726:0.343277 774:0.276113 785:0.537296 786:0.365665 800:0.425359 809:0.515622 810:0.310546 811:0.627727 812:0.438003 813:0.560889 814:0.549291 815:0.172436 816:0.465557 817:0.313467 818:0.284314 819:0.421565 820:0.383425 821:0.611015 822:0.305294 823:0.706137 824:0.291793 825:0.612975 826:0.684951 827:0.545356 828:0.767392 829:0.334737 830:0.608586 831:0.229866 832:0.440484 833:0.3933 834:0.121203 835:0.460246 836:0.474465 837:0.523481 838:0.344379 
2 2:0.127908 3:0.197674 10:0.186048 14:0.294574 15:0.22093 27:0.418605 28:0.191862 41:0.22093 46:0.294574 58:0.267446 66:0.395349 113:0.294574 122:0.418605 163:0.511638 180:0.883721 190:0.418605 232:0.215118 244:0.372096 253:0.33721 273:0.348843 285:0.294574 305:0.360469 307:0.406986 338:0.430236 365:0.395349 374:0.418605 380:0.406986 386:0.294574 406:0.383724 407:0.294574 423:0.395349 436:0.372096 437:0.267446 451:0.294574 452:0.395349 461:0.395349 502:0.767449 504:0.790698 505:0.418605 520:0.476753 541:0.294574 552:0.395349 589:0.44186 593:0.790698 605:0.395349 618:0.46512 665:0.372096 670:0.348843 677:0.44186 687:0.294574 707:0.418605 708:0.418605 741:0.215118 743:0.430236 745:0.372096 747:0.406986 768:0.44186 777:0.255813 784:0.360469 789:0.453492 797:0.33721 809:0.767149 810:0.415 811:0.693116 812:0.46935 813:0.740197 814:0.689418 815:0.295934 816:0.498689 817:0.2119 818:0.628476 819:0.415054 820:0.34814 821:0.517791 822:0.519022 823:0.718403 824:0.672012 825:0.517862 826:0.647758 827:0.37555 828:0.494484 829:0.382633 830:0.586929 831:0.291445 832:0.400646 833:0.471402 834:0.585096 835:0.522838 836:0.781704 837:0.571903 838:0.586706 
0.8354885056804732 2:0.250003 6:0.575746 17:0.374996 28:0.374996 66:0.386356 80:0.575746 93:0.772712 94:0.749992 103:0.727264 131:0.465908 144:0.738633 173:0.522724 184:0.681817 190:0.818165 197:0.772712 284:0.545444 290:0.8409 309:0.772712 320:0.575746 361:0.795457 386:0.575746 444:0.8409 464:0.863619 470:0.863619 504:0.772712 531:0.43181 559:1 587:0.579534 693:0.659078 765:0.534087 786:0.556816 794:0.522724 807:0.659078 809:0.650708 810:0.326563 811:0.558945 812:0.592282 813:0.490485 814:0.400918 815:0.41115 816:0.59043 817:0.4239 818:0.469396 819:0.622902 820:0.535155 821:0.646701 822:0.490983 823:0.576443 824:0.331959 825:0.420838 826:0.66199 827:0.256481 828:0.288958 829:0.488609 830:0.0582663 831:0.296118 832:0.403514 833:0.208356 834:0.127512 835:0.412654 837:0.396981 838:0.440719 
1.499559918744582 2:0.448982 7:0.326528 23:0.612246 41:0.387749 43:0.673465 49:0.459185 52:0.346933 64:0.775498 151:0.755097 178:0.714291 211:0.714291 232:0.377548 249:0.755097 251:0.459185 272:0.734682 285:0.516999 298:0.755097 313:0.734682 351:1 376:0.632649 382:0.775498 396:0.836736 405:0.755097 412:0.775498 418:0.448972 429:0.346933 459:0.489788 492:0.459185 641:0.734682 686:0.714291 699:0.734682 706:0.734682 738:0.734682 747:0.714291 760:0.448972 765:0.47959 793:0.714291 807:0.591828 809:0.594438 810:0.341303 811:0.603937 812:0.547599 813:0.62858 814:0.520929 815:0.271107 816:0.546739 817:0.31827 818:0.716539 819:0.40894 820:0.357414 821:0.400791 822:0.515481 823:0.552525 824:0.548892 825:0.421213 826:0.718895 827:0.42628 828:0.485404 829:0.515032 830:0.616599 831:0.597518 832:0.421584 833:0.576274 834:0.497446 835:0.546696 836:0.55831 837:0.393573 838:0.505844 
1.458282371717768 58:0.489374 64:0.80852 70:0.539013 72:0.702142 123:0.80852 142:0.723412 147:0.755334 159:0.702142 170:0.744706 195:0.680864 285:0.539013 298:0.78725 331:0.744706 343:0.80852 395:0.702142 396:0.872366 410:0.539013 422:0.659588 477:0.539013 532:0.539013 537:0.659588 558:0.539013 604:1 642:0.457452 648:0.659588 664:0.680864 688:0.80852 690:0.638316 705:0.702142 709:0.638316 722:0.638316 726:0.489374 739:0.702142 770:0.765966 773:0.680864 796:0.702142 801:0.361706 809:0.656482 810:0.267614 811:0.153788 812:0.389196 813:0.761571 814:0.182738 815:0.3051 816:0.404356 817:0.626472 818:0.332269 819:0.428718 820:0.599167 821:0.590747 822:0.559998 823:0.48631 824:0.528308 825:0.419301 826:0.508803 827:0.686672 828:0.535826 829:0.736027 830:0.503487 831:0.447041 832:0.593093 833:0.135952 834:0.3027 835:0.10839 836:0.489826 837:0.350006 838:0.190455 
0.7095173763192899 2:0.11 6:0.506663 11:0.620001 13:0.579996 21:0.39 28:0.33 33:0.460003 38:0.579996 49:0.450005 53:0.310001 56:0.579996 77:0.579996 80:0.506663 108:0.679995 109:0.620001 131:0.410004 133:0.506663 138:0.759994 145:0.64 190:0.719994 194:0.39 200:0.719994 244:0.64 264:0.759994 310:0.64 322:0.759994 345:0.679995 352:0.579996 377:0.820008 402:0.719994 434:0.579996 470:0.759994 473:0.679995 505:0.719994 519:0.740001 531:0.379997 562:0.506663 569:0.920006 607:0.679995 614:0.759994 639:0.569995 641:0.719994 754:0.490004 765:0.470002 771:0.759994 809:0.359472 810:0.464428 811:0.685406 812:0.317808 813:0.638238 814:0.696185 815:0.468587 816:0.877759 817:0.401687 818:0.595979 819:0.594748 820:0.482515 821:0.415633 822:0.239049 823:0.418364 824:0.155822 825:0.443252 826:0.448938 827:0.57842 828:0.773556 829:0.542482 830:0.483765 831:0.36615 832:0.538443 833:0.384183 834:0.233169 835:0.500629 836:0.296987 837:0.491743 838:0.472815 
1.437178307584013 17:0.311322 28:0.311322 41:0.358489 47:0.433967 50:0.566046 75:0.792457 131:0.386798 136:1 144:0.613215 146:0.679243 173:0.433967 208:0.679243 211:0.66039 226:0.415092 242:0.575472 265:0.415092 266:0.566046 296:0.477986 399:0.905678 429:0.641507 439:0.566046 520:0.773596 530:1 533:0.566046 563:0.698117 592:0.4434 602:0.716978 610:0.641507 611:0.584909 619:0.584909 675:0.566046 698:0.811318 710:0.716978 716:0.603776 722:0.566046 771:0.716978 786:0.46227 794:0.433967 807:0.547168 808:0.367926 809:0.62175 810:0.199599 811:0.511677 812:0.254323 813:0.578173 814:0.399859 815:0.205602 816:0.377521 817:0.309594 818:0.124647 819:0.412956 820:0.412014 821:0.520354 822:0.313886 823:0.469224 824:0.148253 825:0.509339 826:0.560522 827:0.714989 828:0.841303 829:0.858533 830:0.874856 831:0.566842 832:0.802308 833:0.325883 834:0.410741 835:0.250015 836:0.810928 837:0.427447 838:0.285528 
0.8001732712338167 1:0.475 2:0.229169 3:0.354158 4:0.604153 5:0.340275 6:0.527765 7:0.333328 8:0.645824 9:0.458321 11:0.645824 13:0.604153 29:0.604153 32:0.458321 134:0.645824 177:0.527765 192:0.395824 218:0.527765 235:0.791648 253:0.604153 292:0.770822 293:0.791648 300:0.624996 317:0.624996 338:0.770822 343:0.791648 366:0.708316 369:0.527765 395:0.68749 409:0.791648 467:0.624996 520:0.854162 539:0.770822 605:0.708316 631:0.624996 661:0.41666 669:0.458321 688:0.791648 697:0.812488 809:0.481168 810:0.45228 811:0.444596 812:0.691185 813:0.505219 814:0.457759 815:0.581628 816:0.747389 817:0.530233 818:0.672597 819:0.555062 820:0.648482 821:0.317693 822:0.362163 823:0.577829 824:0.691832 825:0.485106 826:0.400975 827:0.436435 828:0.802105 829:0.533442 830:0.54993 831:0.320874 832:0.693605 833:0.471722 834:0.338522 835:0.348009 836:0.376978 837:0.491387 838:0.365189 
2 3:0.303567 4:0.517849 5:0.291667 14:0.452374 39:0.410713 66:0.303567 81:0.607133 90:0.678561 102:0.71428 104:0.428565 108:0.607133 119:0.428565 131:0.366072 184:0.535715 197:0.607133 225:0.303567 244:0.571424 272:0.642847 276:0.678561 365:0.607133 393:0.625004 442:0.571424 504:0.607133 534:0.553568 536:0.410713 542:0.312497 563:0.66071 564:0.642847 572:0.383922 598:0.571424 601:0.607133 604:0.419641 641:0.642847 645:0.589282 651:0.482139 669:0.39285 699:0.642847 725:0.589282 730:0.553568 748:0.696424 754:0.4375 757:0.39285 770:0.642847 776:0.607133 809:0.676761 810:0.553089 811:0.637092 812:0.582044 813:0.692932 814:0.576284 815:0.332303 816:0.629535 817:0.506643 818:0.611334 819:0.456366 820:0.492516 821:0.550936 822:0.517563 823:0.589799 824:0.536464 825:0.677643 826:0.683759 827:0.267397 828:0.445527 829:0.329904 830:0.697304 831:0.154048 832:0.259818 833:0.572605 834:0.59494 835:0.519685 836:0.597668 837:0.47829 838:0.606087 
2 11:0.436636 21:0.274658 43:0.464805 46:0.356817 64:0.535226 65:0.535226 85:0.408462 93:0.478886 147:1 159:0.464805 167:0.422554 170:0.492982 192:0.267613 203:0.535226 216:0.478886 223:0.464805 254:0.521146 261:0.422554 279:0.521146 298:0.521146 300:0.422554 331:0.492982 342:0.309867 344:0.492982 396:0.577491 427:0.619747 450:0.338037 451:0.356817 456:0.492982 478:0.338037 485:0.535226 500:0.422554 503:0.535226 526:0.45072 548:0.323957 550:0.535226 575:0.507056 580:0.464805 590:0.549316 597:0.535226 602:0.535226 603:0.408462 611:0.436636 626:0.422554 670:0.422554 671:0.478886 737:0.535226 751:0.478886 756:0.56338 758:1 778:0.302825 802:0.492982 806:0.436636 809:0.43263 810:0.359739 811:0.555175 812:0.158879 813:0.706459 814:0.437986 815:0.514831 816:0.723929 817:0.513858 818:0.523069 819:0.284199 820:0.575983 821:0.380622 822:0.246095 823:0.511213 824:0.434177 825:0.512678 826:0.481197 827:0.388994 828:0.597087 829:0.385527 830:0.555786 831:0.296102 832:0.432771 833:0.536193 834:0.199097 835:0.516776 836:0.336126 837:0.5002 838:0.549572 
0.3368523300937602 1:0.370728 10:0.39024 14:0.617875 19:0.5 28:0.402435 40:0.78048 66:0.829253 71:0.54878 101:0.4878 184:0.731707 190:0.878033 197:0.829253 213:0.926813 233:0.451215 244:0.78048 277:0.731707 284:0.585355 340:0.853663 357:0.536575 368:0.524381 418:0.536575 425:0.573168 448:0.829253 462:0.707305 464:0.926813 465:0.78048 492:0.54878 516:1 534:0.756092 598:0.78048 609:0.78048 619:0.756092 674:0.853663 730:0.756092 809:0.736655 810:0.676708 811:0.813994 812:0.785073 813:0.823112 814:0.590644 815:0.52806 816:0.715395 817:0.459931 818:0.632993 819:0.563421 820:0.546995 821:0.455961 822:0.492946 823:0.514207 824:0.424626 825:0.411581 826:0.525967 827:0.351149 828:0.594129 829:0.448257 830:0.470455 831:0.201869 832:0.54926 833:0.438554 834:0.459674 835:0.437669 836:0.527689 837:0.298479 838:0.474507 
0.6612963998961069 39:0.621625 49:0.608114 93:0.918911 94:0.891892 108:0.918911 186:0.864864 192:0.513509 193:0.918911 254:1 326:0.972964 345:0.918911 352:0.783778 362:0.783778 424:0.648643 442:0.864864 469:0.918911 481:0.418919 483:0.486482 545:0.581076 562:0.684679 608:0.554059 666:0.783778 682:1 691:0.891892 712:0.945959 714:1 797:0.783778 809:0.266079 810:0.303519 811:0.446801 812:0.456132 813:0.300314 814:0.370286 815:0.368505 816:0.287128 817:0.556231 818:0.314965 819:0.677026 820:0.405976 821:0.634459 822:0.681798 823:0.512388 824:0.567901 825:0.480327 826:0.550839 827:0.406745 828:0.718069 829:0.404033 830:0.61247 831:0.191091 832:0.60064 833:0.532953 834:0.0736209 835:0.54524 836:0.566282 837:0.782725 838:0.412588 
1.115404032408508 21:1 37:0.743584 40:0.820512 85:0.743584 133:0.649567 194:1 196:0.649567 197:0.871787 238:0.743584 280:0.743584 293:0.97435 339:0.97435 343:0.97435 366:0.871787 383:0.820512 417:0.923069 419:0.794873 420:0.871787 535:0.923069 571:0.846154 586:0.923069 676:0.743584 752:0.923069 779:1 796:0.846154 809:0.87024 810:1 811:0.913 812:0.37504 813:1 814:0.811572 815:0.133935 816:0.664413 817:0.317989 818:0.502748 819:0.556284 820:0.48984 821:0.49746 822:0.339149 823:0.510547 824:0.394379 825:0.530016 826:0.415304 827:0.551248 828:0.655116 829:0.50794 830:0.583373 831:0.494344 832:0.481958 833:0.497647 834:0.814473 835:0.539702 836:0.622737 837:0.580669 838:0.607685 
0.5387669274304493 2:0.124999 7:0.363632 8:0.704538 41:0.43181 45:0.704538 57:0.749992 77:0.659078 108:0.772712 113:0.575746 128:0.681817 137:0.522724 141:0.772712 143:0.749992 172:0.556816 266:0.681817 279:0.8409 318:0.681817 336:0.772712 346:0.499989 363:0.575746 365:0.772712 389:0.659078 421:0.488627 429:0.386356 433:0.772712 461:0.772712 482:0.477267 494:0.340903 509:0.443177 533:0.681817 544:0.8409 608:0.465908 626:0.681817 678:0.795457 745:0.727264 746:0.659078 761:0.772712 785:0.818165 809:0.651998 810:0.492956 811:0.687652 812:0.452524 813:0.797505 814:0.766081 815:0.419889 816:0.529665 817:0.333579 818:0.589639 819:0.308935 820:0.295023 821:0.390851 822:0.250672 823:0.517543 824:0.285587 825:0.456577 826:0.523283 827:0.498797 828:0.618762 829:0.54271 830:0.28743 831:0.345047 832:0.66992 833:0.394791 834:0.468277 835:0.491921 836:0.521699 837:0.415873 838:0.631195 
1.318810430001798 2:0.383719 15:0.44186 41:0.44186 71:0.523265 130:0.697687 156:0.813972 175:0.697687 201:0.883721 269:0.883721 289:0.883721 296:0.589147 313:0.837209 322:0.883721 329:0.767449 341:0.511627 342:0.511627 417:0.837209 434:0.674419 454:0.674419 455:0.44186 482:0.488376 531:0.44186 533:0.697687 561:0.767449 586:0.837209 620:0.883721 623:0.883721 635:0.837209 644:0.720937 757:0.511627 780:0.837209 785:0.837209 809:0.480483 810:0.536539 811:0.834778 812:0.423369 813:0.788458 814:0.747061 815:0.411699 816:0.337107 817:0.395826 818:0.575241 819:0.382503 820:0.399492 821:0.502173 822:0.427614 823:0.515625 824:0.667579 825:0.471979 826:0.564082 827:0.609974 828:0.720098 829:0.52083 830:0.660009 831:0.359423 832:0.603054 833:0.26418 834:0.414868 835:0.393992 836:0.776476 837:0.468387 838:0.355755 
1.391227312697274 2:0.134145 6:0.617875 39:0.560973 45:0.756092 49:0.54878 61:0.5 74:0.560973 77:0.707305 80:0.617875 97:0.926813 108:0.829253 131:0.5 155:0.756092 230:0.756092 237:0.451215 270:0.365848 389:0.707305 447:0.926813 469:0.829253 481:0.378046 483:0.439016 526:0.78048 560:0.829253 562:0.617875 594:0.707305 599:0.756092 649:0.853663 682:0.902431 695:0.707305 704:0.5 732:0.902431 774:0.451215 775:0.78048 808:0.475605 809:0.465757 810:0.31447 811:0.32033 812:0.483254 813:0.358794 814:0.386028 815:0.528124 816:0.702994 817:0.776285 818:0.562037 819:0.707403 820:0.543105 821:0.49631 822:0.473742 823:0.302705 824:0.364298 825:0.321701 826:0.360981 827:0.412423 828:0.291935 829:0.537713 830:0.0293849 831:0.417376 832:0.642559 833:0.55566 834:0.344224 835:0.647088 836:0.508564 837:0.433246 838:0.682753 
2 1:0.370728 5:0.398373 6:0.617875 9:0.536575 12:0.707305 58:0.560973 95:0.39024 131:0.5 170:0.853663 171:0.617875 184:0.731707 192:0.463406 250:0.617875 253:0.707305 266:0.731707 274:0.439016 285:0.617875 340:0.853663 389:0.707305 465:0.78048 520:1 598:0.78048 662:0.804871 674:0.853663 745:0.78048 754:0.59756 798:0.707305 799:0.536575 809:0.812102 810:0.407457 811:0.54589 812:0.409821 813:0.76696 814:0.604274 815:0.277307 816:0.298049 817:0.332415 818:0.262518 819:0.409246 820:0.436511 821:0.571045 822:0.57007 823:0.566089 824:0.463308 825:0.402306 826:0.589267 827:0.42818 828:0.652628 829:0.575961 830:0.830347 831:0.292645 832:0.514769 833:0.479116 834:0.2874 835:0.249657 836:0.289865 837:0.508462 838:0.294431 
2 1:0.393102 9:0.379298 10:0.275856 14:0.436769 15:0.327576 16:0.327576 35:0.499986 41:0.327576 49:0.387926 62:0.499986 105:0.262065 125:0.620671 165:0.281605 166:0.413781 188:0.499986 211:0.603444 236:0.534472 247:0.413781 265:0.379298 267:0.586189 272:0.620671 283:0.517235 286:0.534472 304:0.706888 309:0.586189 335:0.436769 364:0.655153 402:0.620671 416:0.413781 417:0.620671 429:0.293095 432:0.551712 438:0.603444 464:0.655153 481:0.267236 493:0.603444 501:0.396545 559:0.379298 580:0.568954 582:0.551712 638:0.405165 654:0.482752 683:0.551712 699:0.620671 715:0.586189 752:0.620671 800:0.491365 807:0.499986 809:0.620478 810:0.469076 811:0.677458 812:0.660445 813:0.519746 814:0.568964 815:0.408754 816:0.554042 817:0.453937 818:0.499097 819:0.593091 820:0.485164 821:0.346195 822:0.406335 823:0.422635 824:0.426493 825:0.370502 826:0.488896 827:0.441277 828:0.586688 829:0.584323 830:0.717184 831:0.364767 832:0.597863 833:0.545293 834:0.336513 835:0.414877 836:0.613094 837:0.426215 838:0.309606 
0.2613232730185067 9:0.578946 29:0.763159 58:0.605272 76:0.947368 134:0.815798 192:0.5 207:0.973693 210:0.894737 217:0.947368 242:0.802635 244:0.842112 253:0.763159 278:0.666667 290:0.973693 319:1 352:0.763159 359:0.894737 366:0.894737 408:0.842112 431:0.868429 432:0.842112 475:0.921074 481:0.407899 494:0.394738 503:1 529:0.605272 554:0.578946 573:0.666667 584:0.578946 593:0.894737 605:0.894737 666:0.763159 683:0.842112 740:0.868429 809:0.553637 810:0.416285 811:0.627385 812:0.40776 813:0.532445 814:0.491062 815:0.176642 816:0.470991 817:0.28396 818:0.337895 819:0.477692 820:0.43326 821:0.476652 822:0.235233 823:0.623118 824:0.544947 825:0.466647 826:0.465369 827:0.627488 828:0.72498 829:0.557236 830:0.359345 831:0.365515 832:0.695383 833:0.468179 834:0.434918 835:0.393824 836:0.555516 837:0.563713 838:0.449763 
0.81629326892198 4:0.537047 11:0.57409 13:0.537047 29:0.537047 32:0.407414 65:0.703716 73:0.592608 93:0.629641 106:0.407414 114:0.703716 144:0.601872 148:0.703716 154:0.555576 174:0.648175 177:0.469144 179:0.703716 213:0.703716 300:0.555576 315:0.407414 381:0.537047 397:1 471:0.592608 496:0.509267 511:0.703716 533:0.555576 553:0.666679 554:0.407414 575:0.666679 597:0.703716 608:0.379643 624:0.648175 625:0.648175 626:0.555576 633:0.703716 651:1 655:0.703716 677:0.703716 678:0.648175 707:0.666679 720:0.666679 734:0.469144 765:0.435198 767:0.629641 785:0.666679 789:0.722242 809:0.41086 810:0.30465 811:0.51895 813:0.721514 814:0.482634 815:0.50264 816:0.527243 817:0.527793 818:0.522436 819:0.441375 820:0.680659 821:0.502238 822:0.293799 823:0.478022 824:0.389795 825:0.499268 826:0.357668 827:0.366842 828:0.399974 829:0.470389 830:0.457252 831:0.460415 832:0.398547 833:0.594359 834:0.360869 835:0.389295 836:0.316784 837:0.458652 838:0.561759 
0.2065238987660019 104:0.615379 131:0.525646 170:0.897448 171:0.649567 252:0.871787 255:0.897448 258:0.871787 262:0.97435 263:0.897448 270:0.384613 306:0.97435 320:0.649567 326:0.923069 351:0.62821 353:0.487175 363:0.649567 379:0.615379 384:0.897448 423:0.871787 456:0.897448 460:0.820512 482:0.538462 495:0.794873 499:0.871787 503:0.97435 530:0.679484 537:0.794873 580:0.846154 590:1 610:0.871787 628:0.615379 742:1 798:0.743584 809:0.554159 810:0.414673 811:0.735223 812:0.645929 813:0.34539 814:0.577479 815:0.423001 816:0.335793 817:0.364595 818:0.332886 819:0.742829 820:0.499218 821:0.380458 822:0.30853 823:0.483437 824:0.320018 825:0.314329 826:0.444823 827:0.561584 828:0.53461 829:0.564447 830:0.614127 831:0.343064 832:0.53091 833:0.679981 834:0.748474 835:0.581743 836:0.583238 837:0.455694 838:0.628764 
0.9504577079610039 2:0.250003 15:0.43181 40:0.727264 49:0.511363 55:0.659078 71:0.511363 79:0.522724 88:0.818165 92:0.772712 101:0.45454 104:0.545444 115:0.8409 235:0.863619 238:0.659078 300:0.681817 329:0.749992 334:0.727264 340:0.795457 385:0.8409 386:0.575746 410:0.575746 470:0.863619 474:0.499989 478:0.545444 537:0.704538 553:0.818165 557:0.727264 578:0.42045 608:0.465908 708:0.818165 730:0.704538 739:0.749992 753:0.90908 788:0.511363 809:0.627806 810:0.643243 811:0.590075 812:0.577823 813:0.779329 814:0.540381 815:0.560937 816:0.645371 817:0.6829 818:0.604009 819:0.627743 820:0.562886 821:0.391744 822:0.404471 823:0.528812 824:0.525348 825:0.45449 826:0.532782 827:0.38545 828:0.62242 829:0.32193 830:0.737055 831:0.290613 832:0.39143 833:0.558957 834:0.65924 835:0.566971 836:0.715167 837:0.498861 838:0.676363 
1.564388109057326 5:0.333333 9:0.448972 10:0.326528 47:0.469387 54:0.40816 72:0.673465 79:0.469387 128:0.612246 165:0.333333 173:0.469387 190:0.734682 192:0.387749 199:0.81632 207:0.755097 227:0.693866 244:0.653056 256:0.693866 265:0.448972 302:0.775498 319:0.775498 325:0.775498 331:0.714291 379:0.489788 385:0.755097 396:0.836736 441:0.693866 491:0.755097 529:0.469387 561:0.673465 602:0.775498 651:0.551017 668:0.693866 673:0.693866 683:0.653056 730:0.632649 736:0.693866 759:0.673465 790:0.673465 809:0.526483 810:0.383043 811:0.795993 812:0.417614 813:0.561126 814:0.585449 815:0.258129 816:0.511288 817:0.346844 818:0.304516 819:0.45888 820:0.456814 821:0.474542 822:0.587025 823:0.563222 824:0.520198 825:0.41763 826:0.641999 827:0.282854 828:0.524932 829:0.308214 830:0.479376 831:0.158755 832:0.314658 833:0.768194 834:0.669248 835:0.658111 836:0.619133 837:0.829987 838:0.721221 
1.205427766088636 26:0.5 45:0.756092 53:0.378046 57:0.804871 61:0.5 63:0.78048 132:0.617875 155:0.756092 174:0.853663 227:0.829253 230:0.756092 237:0.902431 248:0.560973 270:0.365848 278:0.617875 287:0.617875 330:0.78048 369:0.617875 389:0.707305 437:0.560973 490:0.902431 582:0.78048 599:0.756092 619:0.756092 640:0.560973 670:0.731707 704:1 717:0.451215 721:0.78048 774:0.451215 775:0.78048 808:0.475605 809:0.723019 810:0.382254 811:0.272354 812:0.365306 813:0.599215 814:0.238194 815:0.311668 816:0.511016 817:0.69605 818:0.377194 819:0.502746 820:0.600546 821:0.574631 822:0.53686 823:0.45105 824:0.506922 825:0.37477 826:0.472513 827:0.495931 828:0.363241 829:0.306615 830:0.211168 831:0.217598 832:0.367198 833:0.618331 834:0.594687 835:0.83285 836:0.541356 837:0.492303 838:1 
0.5914683523194857 1:0.172725 3:0.386356 4:0.659078 7:0.363632 8:0.704538 11:0.704538 13:0.659078 41:0.43181 66:0.386356 149:0.727264 206:0.575746 223:0.749992 246:0.863619 251:0.511363 287:0.575746 318:0.681817 339:0.863619 367:0.795457 368:0.488627 429:0.386356 462:0.659078 481:0.352269 483:0.409083 493:0.795457 548:0.522724 553:0.818165 556:0.727264 567:0.522724 608:0.465908 626:0.681817 629:0.522724 638:0.534087 640:0.522724 668:0.772712 692:0.659078 725:0.749992 764:0.749992 789:0.886354 809:0.591311 810:0.645326 811:0.640041 812:0.600762 813:0.733551 814:0.591495 815:0.337916 816:0.588776 817:0.524855 818:0.702697 819:0.373684 820:0.524386 821:0.614944 822:0.771483 823:0.572451 824:0.692928 825:0.544228 826:0.638033 827:0.363857 828:0.491213 829:0.311755 830:0.406934 831:0.249058 832:0.36124 833:0.489127 834:0.506141 835:0.455174 836:0.686083 837:0.603841 838:0.390473 
1.417094952624889 4:0.630427 94:0.717388 98:0.43478 112:0.550717 137:0.5 150:0.826075 172:0.53261 224:0.336955 229:0.760876 248:0.5 271:0.67391 277:0.652177 278:0.550717 400:0.717388 401:0.73912 421:0.467385 431:0.717388 432:0.695648 437:0.5 480:0.73912 502:0.717388 504:0.73912 513:1 536:0.5 544:0.804344 573:0.550717 577:0.67391 590:0.847822 595:0.413038 680:0.43478 723:0.826075 740:0.717388 746:0.630427 776:0.73912 800:0.619557 809:0.535762 810:0.486586 811:0.554266 812:0.464838 813:0.674206 814:0.529752 815:0.375781 816:0.403917 817:0.441544 818:0.34764 819:0.414197 820:0.454884 821:0.488562 822:0.513207 823:0.487618 824:0.524591 825:0.359147 826:0.512177 827:0.715729 828:0.531038 829:0.637592 830:0.605959 831:0.51402 832:0.693572 833:0.0366059 834:0.365927 835:0.239879 836:0.491572 837:0.3769 838:0.231627 
2 15:0.243597 18:0.324796 20:0.243597 28:0.211547 47:0.294885 55:0.371806 93:0.435911 94:0.423093 104:0.307702 105:0.389746 109:0.397452 120:0.435911 126:0.448742 154:0.384634 157:0.410272 158:0.487194 159:0.423093 173:0.294885 186:0.410272 190:0.461552 199:0.51284 203:0.487194 227:0.435911 232:0.237189 242:0.391039 261:0.384634 265:0.282059 271:0.397452 287:0.324796 291:0.551299 298:0.474377 300:0.384634 304:0.525666 330:0.410272 398:0.294885 430:0.243597 445:0.397452 470:0.487194 477:0.324796 485:0.487194 506:0.307702 525:0.324796 542:0.224367 552:0.435911 583:0.435911 620:0.243597 629:0.294885 645:0.423093 687:0.324796 689:0.448742 717:0.237189 764:0.423093 786:0.314117 799:0.282059 803:0.448742 805:0.487175 808:0.25001 809:0.38893 810:0.179035 811:0.437031 812:0.371161 813:0.602497 814:0.347936 815:0.321653 816:0.486291 817:0.350825 818:0.503563 819:0.512422 820:0.372645 821:0.679313 822:0.611364 823:0.781913 824:0.45286 825:0.534853 826:0.899675 827:0.301171 828:0.389634 829:0.111174 830:0.539254 831:0.29443 832:0.132678 833:0.4109 834:0.370068 835:0.590093 836:0.539447 837:0.449332 838:0.573556 
0.9533130246131735 40:0.666656 42:0.749982 96:1 123:0.791648 150:0.791648 152:0.68749 172:0.510413 182:0.729166 209:0.645824 210:0.708316 240:0.527765 247:1 288:0.749982 328:0.708316 331:0.729166 393:0.729166 394:1 422:0.645824 443:0.791648 517:0.791648 540:0.770822 574:0.729166 576:0.527765 587:0.531237 600:0.791648 606:0.666656 633:0.791648 652:0.708316 693:0.604153 700:0.791648 712:0.729166 719:0.791648 807:0.604153 809:0.477481 810:0.414433 811:0.616148 812:0.505883 813:0.501022 814:0.259654 815:0.497286 816:0.629127 817:0.61275 818:0.305351 819:0.392373 820:0.827672 821:0.2285 822:0.1199 823:0.266372 824:0.259601 825:0.206117 826:0.176194 827:0.794433 828:1 829:0.72194 830:0.804349 831:0.683258 832:0.88303 833:0.308698 834:0.299354 835:0.274698 836:0.710507 837:0.28172 838:0.118538 
1.242654255278958 39:0.522724 45:0.704538 57:0.749992 65:0.863619 92:0.772712 121:0.727264 142:0.772712 143:0.749992 165:0.371211 230:0.704538 253:0.659078 261:0.681817 265:0.499989 267:0.772712 281:0.681817 296:0.575746 300:0.681817 346:0.499989 369:0.575746 442:0.727264 526:0.727264 530:0.602263 532:0.575746 533:0.681817 537:0.704538 545:0.488627 576:0.575746 588:0.727264 597:0.863619 651:0.61363 679:0.772712 715:0.772712 753:0.90908 765:0.534087 799:0.499989 806:0.704538 807:0.659078 809:0.456829 810:0.204246 811:0.396386 812:0.111055 813:0.65259 814:0.469479 815:0.432046 816:0.439288 817:0.372098 818:0.365829 819:0.405439 820:0.343575 821:0.601976 822:0.505288 823:0.614755 824:0.465866 825:0.591362 826:0.745601 827:0.363094 828:0.669238 829:0.346437 830:0.893292 831:0.320955 832:0.290044 833:0.551827 834:0.233527 835:0.705259 836:0.0746163 837:0.701193 838:0.691556 
0.3629112565704605 9:0.499989 40:0.727264 48:1 49:0.511363 50:0.681817 58:0.522724 72:0.749992 99:0.568175 120:0.772712 127:1 142:0.772712 192:0.43181 204:0.749992 250:0.575746 253:0.659078 262:0.863619 274:0.409083 299:0.727264 311:0.659078 383:0.727264 397:0.61363 417:0.818165 424:0.545444 453:0.772712 477:0.575746 532:0.575746 543:0.659078 553:0.818165 554:1 598:0.727264 606:0.727264 609:0.727264 651:0.61363 702:0.443177 711:0.818165 715:0.772712 809:0.731798 810:0.348184 811:0.699261 812:0.203008 813:0.812316 814:0.664176 815:0.498426 816:0.265156 817:0.237608 818:0.0814753 819:0.477067 820:0.347246 821:0.321543 822:0.616389 823:0.488564 824:0.655841 825:0.256162 826:0.568734 827:0.517052 828:0.607833 829:0.339859 830:0.682182 831:0.665616 832:0.424032 833:0.438591 834:0.323721 835:0.600305 836:0.480729 837:0.496973 838:0.528304 
2 17:0.366663 19:0.455556 23:0.666667 28:0.366663 43:0.733327 52:0.377771 67:0.488879 101:0.44444 120:0.755542 126:0.777782 191:0.488879 192:0.422215 236:0.688883 265:0.488879 283:0.666667 290:0.822215 360:0.844429 361:0.777782 376:0.688883 422:0.688883 455:0.422215 474:0.488879 531:0.422215 533:0.666667 537:0.688883 555:1 556:0.711104 559:0.488879 610:0.755542 639:0.633322 674:0.777782 739:0.733327 765:0.522219 787:0.755542 807:0.644433 809:0.482241 810:0.286425 811:0.741487 812:0.306544 813:0.527026 814:0.616122 815:0.493329 816:0.528929 817:0.341245 818:0.342013 819:0.472375 820:0.407494 821:0.327176 822:0.340273 823:0.560928 824:0.348139 825:0.489171 826:0.647377 827:0.484676 828:0.560669 829:0.230897 830:0.557135 831:0.129779 832:0.212874 833:0.536063 834:0.479247 835:0.713565 836:0.430794 837:0.702508 838:0.795365 
2 5:0.125637 10:0.123072 18:0.194862 20:0.146147 23:0.230762 27:0.27691 33:0.176917 35:0.223066 39:0.176917 43:0.507706 50:0.230762 52:0.130763 57:0.253836 63:0.246144 74:0.353857 99:0.1923 106:0.169222 107:0.194862 111:0.284604 117:0.238452 154:0.230762 155:0.476936 168:0.292294 170:0.269224 179:0.292294 213:0.292294 214:0.292294 242:0.234605 249:0.284604 254:0.284604 264:0.292294 269:0.292294 271:0.238452 322:0.292294 341:0.169222 344:0.807707 346:0.169222 356:0.246144 372:0.269224 375:0.223066 376:0.238452 385:0.284604 436:0.246144 444:0.284604 452:0.261526 460:0.246144 476:0.269224 478:0.184607 479:0.169222 501:0.176917 506:0.184607 508:0.269224 509:0.149994 532:0.38975 538:0.292294 544:0.284604 547:0.27691 549:0.223066 550:0.292294 551:0.246144 558:0.194862 561:0.507706 573:0.194862 575:0.553856 581:0.292294 583:0.261526 588:0.246144 591:0.261526 594:0.223066 608:0.157688 615:0.284604 617:0.292294 640:0.176917 643:0.253836 646:0.476936 656:0.553856 667:0.284604 678:0.269224 685:0.184607 706:0.27691 711:0.27691 726:0.176917 734:0.194862 757:0.169222 758:0.273066 783:0.292294 785:0.553856 791:0.30768 800:0.438469 801:0.130763 804:0.253836 805:0.146147 806:0.238452 809:0.331812 810:0.201769 811:0.464358 812:0.311427 813:0.685119 814:0.441746 815:0.402725 816:0.425059 817:0.239095 818:0.379927 819:0.457286 820:0.373064 821:0.539069 822:0.425786 823:0.676007 824:0.410715 825:0.54859 826:0.624538 827:0.417537 828:0.520773 829:0.43753 830:0.481964 831:0.274198 832:0.509141 833:0.491956 834:0.459219 835:0.484335 836:0.505786 837:0.487013 838:0.547519 
0.1758786479753688 7:0.484848 31:1 52:0.515147 104:0.727266 152:1 159:1 192:0.575752 204:1 234:0.681824 236:0.939395 265:0.666659 390:0.76767 424:0.727266 465:0.969696 482:0.636364 484:1 518:1 571:1 592:0.712124 694:1 702:0.590909 705:1 763:1 777:0.666659 778:0.651509 796:1 809:0.658864 810:0.430334 811:0.625916 812:0.39576 813:0.682019 814:0.386957 815:0.34375 816:0.558967 817:0.486105 818:0.306631 819:0.488507 820:0.748332 821:0.365896 822:0.206127 823:0.516412 824:0.346783 825:0.411454 826:0.334893 827:0.720197 828:0.698104 829:0.474944 830:0.876894 831:0.532606 832:0.631904 833:0.19957 834:0.247452 835:0.303053 836:0.390441 837:0.343633 838:0.351519 
1.294876674605515 1:0.345458 5:0.371211 9:0.499989 10:0.363632 14:0.575746 15:0.43181 35:0.659078 37:0.659078 41:0.43181 46:0.575746 50:0.681817 62:0.659078 132:0.575746 194:0.443177 210:0.772712 342:0.499989 419:0.704538 420:0.772712 422:0.704538 455:0.43181 457:1 474:0.499989 518:0.749992 531:0.43181 535:0.818165 539:0.8409 592:0.534087 649:0.795457 652:0.772712 677:0.863619 696:0.8409 716:0.727264 752:0.818165 762:0.575746 774:0.42045 809:0.50596 810:0.57269 811:0.792967 812:0.569464 813:0.64447 814:0.647869 815:0.574166 816:0.560792 817:0.386048 818:0.428674 819:0.360335 820:0.491541 821:0.427052 822:0.604008 823:0.645113 824:0.602626 825:0.566945 826:0.669503 827:0.531782 828:0.499633 829:0.417801 830:0.610702 831:0.488024 832:0.449578 833:0.497097 834:0.408681 835:0.429451 836:0.756522 837:0.381242 838:0.303279 
2 52:0.283337 75:0.350007 93:0.566673 128:1 148:0.633341 157:0.533344 162:0.566673 164:0.633341 172:0.408345 215:0.516678 222:0.600007 227:0.566673 235:0.633341 248:0.766664 254:0.61668 273:1 275:0.583354 277:0.500015 297:0.533344 298:0.61668 309:0.566673 314:0.422227 410:0.422227 413:0.61668 437:0.766664 451:0.844429 452:0.566673 454:0.48334 471:0.533344 502:0.550012 503:0.633341 525:0.422227 533:1 581:0.633341 602:0.633341 610:0.566673 644:0.516678 706:0.600007 717:0.30834 723:0.633341 745:0.533344 756:0.33334 774:0.30834 809:0.627366 810:0.370486 811:0.512643 812:0.210303 813:0.668954 814:0.469167 815:0.361073 816:0.457094 817:0.55875 818:0.70735 819:0.324908 820:0.518198 821:0.470624 822:0.361247 823:0.638092 824:0.416543 825:0.589312 826:0.560707 827:0.477677 828:0.56664 829:0.189732 830:0.672364 831:0.27504 832:0.318341 833:0.703981 834:0.879914 835:0.630867 836:0.85973 837:0.513451 838:0.761559 
1.776034299493011 1:0.447062 2:0.431371 3:0.333333 5:0.640533 9:0.431372 10:0.313728 15:0.372549 22:0.745098 41:0.372549 61:0.401968 66:0.333333 67:0.431372 110:0.333333 179:0.745098 184:0.588246 192:0.372549 225:0.333333 237:0.362748 285:0.496732 295:0.496732 342:0.431372 344:0.68629 368:0.421569 411:0.764713 424:0.470588 440:0.705882 475:0.68629 544:0.725497 558:0.496732 561:0.647065 581:0.745098 638:0.46079 643:0.647065 673:0.666667 678:0.68629 685:0.470588 724:0.725497 746:0.568628 760:0.431372 809:0.645299 810:0.413368 811:0.535009 812:0.808194 813:0.715367 814:0.559864 815:0.20592 816:0.276994 817:0.393513 818:0.612363 819:0.425278 820:0.410866 821:0.772956 822:0.594697 823:0.830046 824:0.630802 825:0.578783 826:0.836702 827:0.207789 828:0.329807 829:0.161918 830:0.430562 831:0.253556 832:0.19843 833:0.211372 834:0.16449 835:0.519164 836:0.359704 837:0.455193 838:0.537579 
1.064104683630094 2:0.124999 6:0.575746 39:0.522724 49:0.511363 61:0.465908 68:0.795457 74:0.522724 75:0.477267 93:0.772712 95:0.363632 100:0.772712 103:0.727264 111:0.8409 131:0.465908 175:0.681817 177:0.575746 211:0.795457 251:0.511363 281:0.681817 351:0.556816 361:0.795457 362:0.659078 389:0.659078 453:0.772712 456:0.795457 471:0.727264 487:0.8409 501:0.522724 536:0.522724 586:0.818165 588:0.727264 608:0.465908 626:0.681817 637:0.8409 809:0.557644 810:0.257337 811:0.325387 812:0.280228 813:0.59428 814:0.359418 815:0.083292 817:0.716499 818:0.279923 819:0.612707 820:0.567886 821:0.570326 822:0.656421 823:0.358961 824:0.460425 825:0.370629 826:0.455827 827:0.800628 828:0.773079 829:0.495736 830:0.35027 831:0.409235 832:0.626455 833:0.293994 834:0.12386 835:0.528312 836:0.496879 837:0.405184 838:0.459888 
2 2:0.130955 3:0.101183 4:0.345243 11:0.184512 12:0.172607 15:0.113087 16:0.113087 19:0.122017 23:0.178562 25:0.130943 32:0.130943 35:0.172607 37:0.172607 41:0.113087 44:0.116064 47:0.136897 49:0.133921 54:0.11904 55:0.345243 57:0.196416 66:0.101183 70:0.301591 95:0.095232 97:0.226174 106:0.130943 109:0.184512 114:0.226174 130:0.357154 143:0.196416 144:0.193441 154:0.178562 160:0.190464 169:0.178562 174:0.416681 180:0.452348 184:0.178562 187:0.452374 189:0.226174 191:0.130943 193:0.202366 196:0.150783 201:0.226174 214:0.226174 216:0.202366 231:0.122017 236:0.184512 239:0.261891 255:0.208323 256:0.202366 273:0.178562 277:0.357154 279:0.220224 284:0.142847 291:0.255934 293:0.226174 295:0.301591 296:0.150783 299:0.38096 314:0.150783 332:0.172607 337:0.21427 349:0.21427 356:0.190464 357:0.130943 371:0.196416 374:0.21427 381:0.172607 387:0.249979 391:0.202366 395:0.196416 403:0.190464 440:0.21427 450:0.142847 453:0.202366 458:0.178562 459:0.142847 468:0.113087 479:0.130943 487:0.220224 495:0.184512 496:0.163678 500:0.535715 502:0.196416 511:0.226174 534:0.184512 552:0.404767 576:0.150783 583:0.202366 589:0.452386 594:0.172607 621:0.267843 624:0.208323 628:0.142847 636:0.139873 641:0.642847 642:0.127967 644:0.184512 647:0.184512 650:0.202366 658:0.193441 661:0.11904 687:0.150783 697:0.232128 698:0.255934 703:0.178562 705:0.196416 710:0.226174 724:0.220224 728:0.21427 729:0.202366 730:0.184512 736:0.202366 759:0.196416 760:0.130943 773:0.190464 784:0.184512 790:0.196416 795:0.416681 802:0.208323 804:0.196416 809:0.599573 810:0.51866 811:0.697957 812:0.390782 813:0.754459 814:0.672404 815:0.331333 816:0.615155 817:0.3703 818:0.619356 819:0.333361 820:0.439169 821:0.534133 822:0.383968 823:0.553366 824:0.463942 825:0.66007 826:0.491243 827:0.43757 828:0.5574 829:0.393181 830:0.616582 831:0.293301 832:0.411378 833:0.401937 834:0.520049 835:0.536479 836:0.686099 837:0.401962 838:0.636232 
0.8410884035815545 17:0.33 39:0.460003 74:0.460003 79:0.460003 93:0.679995 94:0.660001 103:0.64 137:0.460003 169:0.600006 185:0.620001 189:0.759994 225:0.339997 227:0.679995 248:0.920006 250:0.506663 260:0.759994 341:0.439996 385:0.740001 388:0.719994 403:0.64 410:0.506663 437:0.460003 458:0.600006 481:0.310001 483:0.359997 511:0.759994 536:0.460003 545:0.429997 552:0.679995 567:0.460003 580:0.660001 589:0.759994 650:0.679995 667:0.740001 668:0.679995 679:0.679995 703:0.600006 704:0.410004 756:0.4 769:0.740001 794:0.460003 804:0.660001 809:0.259099 810:0.168107 811:0.0208075 812:0.394175 813:0.569032 814:0.0033229 815:0.739921 816:0.515783 817:0.931873 818:0.407504 819:0.663792 820:0.774597 821:0.392644 822:0.405312 823:0.46908 824:0.461972 825:0.285492 826:0.485105 827:0.6178 828:0.46932 829:0.140323 830:0.487033 831:0.166683 832:0.29769 833:0.687152 834:0.630814 835:0.775301 836:0.604307 837:0.634527 838:0.878786 
0.4202512443812336 2:0.134145 3:0.414627 4:0.707305 7:0.39024 8:0.756092 16:0.463406 39:0.560973 57:0.804871 74:0.560973 104:0.585355 130:0.731707 143:0.804871 160:0.78048 296:0.617875 333:0.731707 376:0.756092 398:0.560973 430:0.463406 435:0.902431 468:0.463406 482:0.512191 488:0.902431 515:0.59756 529:0.560973 533:0.731707 542:0.426824 591:0.829253 640:0.560973 689:0.853663 722:0.731707 724:0.902431 760:0.536575 808:0.951211 809:0.795417 810:0.533982 811:0.682688 812:0.538949 813:0.739073 814:0.71727 815:0.283117 816:0.458604 817:0.169111 818:0.705495 819:0.317465 820:0.183689 821:0.462996 822:0.435379 823:0.815845 824:0.570381 825:0.646452 826:0.813322 827:0.403568 828:0.452778 829:0.540197 830:0.461045 831:0.435453 832:0.572785 833:0.512777 834:0.589279 835:0.197402 836:0.951649 837:0.357685 838:0.119231 
1.64709023945732 2:0.224488 6:0.516999 7:0.326528 19:0.418368 23:0.612246 25:0.448972 44:0.397956 46:0.516999 47:0.469387 52:0.346933 55:0.591828 67:0.448972 79:0.469387 80:0.516999 101:0.40816 106:0.448972 109:0.632649 133:0.516999 145:0.653056 154:0.612246 191:0.448972 231:0.418368 257:0.653056 277:0.612246 296:0.516999 318:0.612246 395:0.673465 402:0.734682 410:0.516999 418:0.448972 437:0.469387 480:0.693866 502:0.673465 504:0.693866 525:0.516999 539:0.755097 576:0.516999 642:0.438768 690:0.612246 753:0.81632 770:0.734682 777:0.448972 809:0.762832 810:0.772181 811:0.571193 812:0.682509 813:0.783764 814:0.496061 815:0.606822 816:0.839977 817:0.752562 818:0.562983 819:0.575332 820:0.648007 821:0.395583 822:0.513298 823:0.465729 824:0.473595 825:0.596953 826:0.430234 827:0.419242 828:0.655864 829:0.44272 830:0.506206 831:0.349817 832:0.63196 833:0.538705 834:0.680349 835:0.367914 836:0.541983 837:0.478094 838:0.307218 
0.4110031335758012 11:0.688883 25:0.488879 44:0.866659 66:0.377771 71:1 85:0.644433 116:0.844429 176:0.933305 184:0.666667 192:0.422215 208:0.799986 217:0.799986 234:1 267:0.755542 272:0.799986 321:0.755542 367:0.777782 451:0.562953 502:0.733327 511:0.844429 523:0.866659 572:0.477769 576:0.562953 582:0.711104 598:0.711104 631:0.666667 639:0.633322 691:0.733327 697:0.866659 770:0.799986 788:1 791:0.88888 799:0.488879 809:0.423189 810:0.594982 811:0.680725 812:0.515853 813:0.629838 814:0.492323 815:0.57948 816:0.98112 817:0.599971 818:0.579006 819:0.706031 820:0.602749 821:0.383009 822:0.527285 823:0.498235 824:0.570449 825:0.441513 826:0.532134 827:0.467282 828:0.579461 829:0.418756 830:0.60645 831:0.227022 832:0.489364 833:0.501307 834:0.401752 835:0.500033 836:0.528603 837:0.586486 838:0.52063 
0.8565231596325812 6:0.575746 15:0.43181 17:0.374996 28:0.374996 34:0.43181 35:0.659078 37:0.659078 47:0.522724 79:0.522724 94:0.749992 103:0.727264 130:0.681817 137:0.522724 171:0.575746 172:0.556816 225:0.386356 248:0.522724 250:0.575746 257:0.727264 274:0.409083 317:0.681817 328:0.772712 334:0.727264 437:0.522724 536:0.522724 559:0.499989 585:0.8409 587:0.579534 590:0.886354 634:0.818165 704:0.465908 758:0.806809 759:0.749992 783:0.863619 786:0.556816 794:0.522724 809:0.51543 810:0.110671 811:0.352145 812:0.360181 813:0.338902 814:0.276831 815:0.473031 816:0.436893 817:0.544128 818:0.46085 819:0.536436 820:0.49235 821:0.621079 822:0.628107 823:0.401517 824:0.527773 825:0.357488 826:0.611669 827:0.347742 828:0.327153 829:0.499692 830:0.644564 831:0.243403 832:0.425301 833:0.64637 834:0.367698 835:0.43113 836:0.571767 837:0.505091 838:0.50797 
1.472997512211651 18:0.633328 39:0.575003 49:0.562506 67:0.549995 87:0.949992 98:1 127:0.549995 160:0.8 168:0.949992 171:0.633328 204:0.825001 224:0.387501 266:0.750008 277:0.750008 299:0.8 347:0.949992 368:0.537496 374:0.899993 416:0.599995 489:1 494:0.374998 499:0.849993 509:0.4875 533:0.750008 534:0.775002 583:0.849993 668:0.849993 680:1 705:0.825001 726:0.575003 730:0.775002 809:0.615692 810:0.496519 811:0.55722 812:0.337897 813:0.813781 814:0.552103 815:0.487431 816:0.433747 817:0.253591 818:0.528971 819:0.470238 820:0.275563 821:0.257985 822:0.216236 823:0.485214 824:0.277347 825:0.399279 826:0.596093 827:0.446342 828:0.50042 829:0.577718 830:0.478161 831:0.370742 832:0.546112 833:0.655252 834:0.564081 835:0.495797 836:0.467309 837:0.555122 838:0.590768 
0.5490033301150736 29:0.707305 32:0.536575 130:0.731707 134:0.756092 175:0.731707 194:0.475605 196:0.617875 211:0.853663 229:0.853663 273:0.731707 296:0.617875 324:0.853663 329:0.804871 345:0.829253 357:0.536575 377:1 402:0.878033 420:0.829253 428:0.439016 478:0.585355 480:0.829253 500:0.731707 518:0.804871 526:0.78048 539:0.902431 545:0.524381 571:0.804871 586:0.878033 614:0.926813 635:0.878033 663:0.829253 747:0.853663 796:0.804871 809:0.322818 810:0.566149 811:0.529867 812:0.355445 813:0.618514 814:0.48028 815:0.761362 816:0.693871 817:0.663598 818:0.47438 819:0.448964 820:0.643974 821:0.287047 822:0.166905 823:0.437272 824:0.376515 825:0.616622 826:0.415806 827:0.620531 828:0.363963 829:0.447426 830:0.305012 831:0.32069 832:0.534052 833:0.404983 834:0.241024 835:0.364136 836:0.434619 837:0.356527 838:0.353058 
0.8145924075526968 1:0.518183 2:0.124999 3:0.386356 5:0.371211 6:0.575746 7:0.363632 9:0.499989 52:0.386356 61:0.465908 63:0.727264 67:0.499989 103:0.727264 224:0.352269 228:0.738633 237:0.42045 239:1 317:0.681817 354:0.488627 369:0.575746 445:0.704538 481:0.352269 483:0.409083 513:0.522724 530:0.602263 578:0.42045 604:0.534087 612:0.42045 642:0.488627 643:0.749992 659:0.795457 721:0.727264 737:0.863619 738:0.818165 741:0.42045 762:0.575746 778:0.488627 801:0.386356 809:0.634164 810:0.453888 811:0.223598 812:0.726452 813:0.531558 814:0.295735 815:0.387243 816:0.479103 817:0.977184 818:0.444957 819:0.624229 820:0.786875 821:0.433755 822:0.349135 823:0.26468 824:0.473867 825:0.257771 826:0.302259 827:0.485204 828:0.508023 829:0.570059 830:0.379575 831:0.448536 832:0.57398 833:0.465179 834:0.232325 835:0.470523 836:0.0803558 837:0.344775 838:0.576805 
2 13:0.475394 15:0.311465 23:0.491795 35:0.475394 41:0.311465 49:0.368846 58:0.377041 67:0.360642 68:0.573764 89:0.622929 98:0.32786 114:0.622929 140:0.622929 149:0.524576 174:0.573764 176:0.688492 179:0.622929 221:0.622929 224:0.254092 242:1 253:0.475394 262:0.622929 267:0.557358 277:0.491795 285:0.415286 299:0.524576 311:0.475394 350:0.901606 381:0.475394 401:0.557358 403:0.524576 407:0.415286 416:0.393429 431:0.54097 455:0.311465 475:0.573764 489:0.65572 531:0.311465 534:0.508184 537:0.508184 543:0.475394 564:0.590143 573:0.415286 581:0.622929 605:0.557358 611:0.508184 620:0.311465 624:0.573764 679:0.557358 680:0.32786 685:0.393429 699:0.590143 730:0.508184 809:0.707369 810:0.427731 811:0.584251 812:0.391215 813:0.847919 814:0.624092 815:0.418042 816:0.577836 817:0.127667 818:0.51643 819:0.418858 820:0.302785 821:0.457446 822:0.315342 823:0.812418 824:0.362305 825:0.545398 826:0.785682 827:0.325089 828:0.40116 829:0.268778 830:0.545716 831:0.329865 832:0.262337 833:0.621326 834:0.436017 835:0.495896 836:0.685814 837:0.497724 838:0.444586 
1.258305222029546 2:0.255816 15:0.44186 31:0.767449 104:0.55814 107:0.589147 159:0.767449 192:0.883721 221:0.883721 249:0.860473 266:0.697687 268:0.813972 373:0.767449 389:0.674419 455:0.44186 459:0.55814 473:0.790698 491:0.860473 531:0.44186 561:0.767449 620:0.44186 629:0.534891 644:0.720937 658:0.755826 678:0.813972 685:0.55814 703:0.697687 775:0.744192 783:0.883721 791:0.93024 794:0.534891 809:0.0035397 810:0.153833 811:0.393229 812:0.453898 813:0.467278 814:0.291958 815:0.526199 816:0.418997 817:0.342833 818:0.297881 819:0.499291 820:0.42786 821:0.702262 822:0.665851 823:0.834523 824:0.824057 825:0.6442 826:0.860927 827:0.205827 828:0.405469 829:0.20393 830:0.769102 831:0.241874 832:0.186655 833:0.675838 834:0.569706 835:0.649343 836:0.400116 837:0.525355 838:0.684963 
0.7385620476714219 2:0.200002 6:0.460607 11:0.563643 23:0.545465 26:0.372735 49:0.409099 71:0.409099 114:0.69091 131:0.372735 145:0.581824 154:0.545465 174:0.63638 218:0.460607 246:0.69091 261:0.545465 296:0.460607 299:0.581824 300:0.545465 316:0.69091 317:0.545465 327:0.69091 329:0.600007 350:1 367:0.63638 390:0.460607 399:0.87275 430:0.345455 473:0.618183 487:0.672735 496:1 498:0.581824 516:0.745469 526:0.581824 530:0.481821 578:0.336367 607:0.618183 609:0.581824 612:0.336367 624:0.63638 637:0.672735 640:0.418189 687:0.460607 747:0.63638 758:0.645461 766:0.672735 771:0.69091 792:0.709099 806:0.563643 809:0.189537 810:0.31318 811:0.456192 812:0.262012 813:0.534166 814:0.45415 815:0.859939 816:0.948166 817:0.728023 818:0.583907 819:0.501839 820:0.697239 821:0.318009 822:0.216807 823:0.197792 824:0.374163 825:0.495686 826:0.304861 827:0.522362 828:0.585088 829:0.670603 830:0.513742 831:0.417612 832:0.627194 833:0.619691 834:0.283645 835:0.4011 836:0.324435 837:0.418351 838:0.431354 
0.2125414564935846 61:0.854182 119:1 166:1 284:1 353:0.791667 379:1 424:1 450:1 459:1 478:1 506:1 628:1 653:1 681:1 685:1 717:0.77084 750:1 809:0.248028 810:0.194154 811:0.441933 812:0.558509 813:0.192588 814:0.253081 815:0.546953 816:0.624445 817:0.487487 818:0.170669 819:0.801389 820:0.634621 821:0.283269 822:0.182679 823:0.600422 824:0.116077 825:0.471173 826:0.540404 827:0.392991 828:0.344667 829:0.292211 830:0.38526 831:0.216899 832:0.238458 833:0.789013 834:0.777334 835:0.782011 836:0.481047 837:0.740316 838:0.912978 
1.672849097930649 39:0.442316 61:0.394239 74:0.884631 103:0.615392 111:0.711548 223:0.634624 228:0.625012 248:0.442316 257:0.615392 340:0.673095 354:0.413463 358:0.711548 389:0.557695 414:0.653849 437:0.442316 481:0.596162 483:0.346155 493:0.673095 511:0.730772 526:0.615392 548:0.442316 567:0.442316 578:0.355774 589:0.730772 594:0.557695 602:0.730772 612:0.355774 619:0.596162 638:0.451931 682:0.711548 688:0.730772 725:0.634624 732:0.711548 735:0.653849 738:0.69231 740:0.634624 764:0.634624 774:0.355774 775:0.615392 806:0.596162 808:0.375005 809:0.304376 810:0.314179 811:0.243337 812:0.374735 813:0.441742 814:0.22525 815:0.620596 816:0.419362 817:0.860389 818:0.319575 819:0.636123 820:0.684024 821:0.399833 822:0.397001 823:0.31618 824:0.457313 825:0.382904 826:0.420429 827:0.581011 828:0.662255 829:0.447237 830:0.644865 831:0.322232 832:0.501777 833:0.292256 834:0.48357 835:0.479302 836:0.545683 837:0.488055 838:0.509924 
2 2:0.035255 6:0.162385 12:0.185889 14:0.162385 15:0.121789 21:0.124995 35:0.185889 37:0.185889 44:0.124995 49:0.144226 55:0.185889 80:0.162385 92:0.217938 101:0.1282 109:0.19871 110:0.108969 114:0.243578 133:0.162385 134:0.19871 140:0.243578 145:0.20512 163:0.282043 171:0.162385 173:0.147431 174:0.224353 185:0.19871 196:0.162385 202:0.230758 219:0.20512 221:0.243578 225:0.108969 235:0.243578 237:0.118585 250:0.162385 252:0.217938 266:0.192302 274:0.115379 280:0.185889 283:0.192302 289:0.243578 292:0.23717 298:0.23717 307:0.224353 310:0.20512 325:0.243578 330:0.20512 332:0.185889 334:0.20512 340:0.224353 343:0.243578 361:0.224353 363:0.162385 365:0.217938 366:0.217938 368:0.137814 390:0.162385 402:0.230758 403:0.20512 407:0.162385 408:0.20512 409:0.243578 416:0.46154 417:0.230758 428:0.115379 433:0.217938 479:0.141019 487:0.23717 493:0.224353 499:0.217938 501:0.147431 503:0.243578 528:0.461552 532:0.162385 535:0.230758 541:0.162385 545:0.137814 579:0.137814 588:0.20512 591:0.217938 592:0.150636 599:0.397452 604:0.150636 605:0.435911 607:0.217938 608:0.131406 609:0.20512 613:0.23717 620:0.121789 632:0.23717 635:0.230758 640:0.147431 643:0.21153 645:0.21153 668:0.217938 673:0.653849 678:0.224353 680:0.1282 683:0.20512 690:0.576936 703:0.192302 704:0.262833 709:0.192302 712:0.224353 716:0.20512 730:0.19871 731:0.192302 747:0.448742 758:0.227555 773:0.410272 775:0.20512 778:0.137814 780:0.230758 781:0.230758 784:0.19871 785:0.230758 805:0.121789 809:0.564101 810:0.459986 811:0.3664 812:0.363516 813:0.722218 814:0.439926 815:0.564776 816:0.480825 817:0.667019 818:0.462886 819:0.49863 820:0.507006 821:0.38895 822:0.44976 823:0.409269 824:0.431734 825:0.410538 826:0.526867 827:0.449042 828:0.59992 829:0.453782 830:0.544095 831:0.308849 832:0.472441 833:0.487737 834:0.341347 835:0.472323 836:0.490139 837:0.470725 838:0.489535 
1.113331958770253 92:0.73912 110:0.36956 137:0.5 143:0.717388 225:0.36956 226:0.478253 237:0.402172 242:0.663037 255:0.760876 268:0.760876 271:0.67391 272:0.782598 276:0.826075 327:0.826075 403:0.695648 409:0.826075 450:0.521732 455:0.413038 478:0.521732 496:0.597817 507:0.73912 536:0.5 568:0.73912 569:1 590:0.847822 604:0.510869 666:0.630427 671:0.73912 679:0.73912 685:0.521732 712:0.760876 729:0.73912 757:0.478253 764:0.717388 780:0.782598 782:0.760876 809:0.489889 810:0.29554 811:0.262137 812:0.41282 813:0.56143 814:0.236621 815:0.624257 816:0.52352 817:0.773208 818:0.273829 819:0.596158 820:0.717554 821:0.20357 822:0.11141 823:0.376816 824:0.315155 825:0.314662 826:0.272617 827:0.74233 828:0.532827 829:0.49639 830:0.432278 831:0.380533 832:0.594283 833:0.750778 834:0.679052 835:0.525435 836:0.538991 837:0.658139 838:0.593155 
0.03828824741381052 5:0.408337 9:0.549995 10:0.4 50:0.750008 135:0.633328 148:0.949992 153:0.849993 178:0.875013 241:0.750008 275:0.875013 313:0.899993 351:0.612505 355:0.949992 421:0.537496 422:0.775002 430:0.474996 466:0.633328 505:0.899993 531:0.474996 537:0.775002 583:0.849993 627:0.349998 633:0.949992 636:0.587503 657:0.775002 663:0.849993 664:0.8 682:0.925001 689:0.875013 720:0.899993 739:0.825001 743:0.925001 752:0.899993 774:0.4625 809:0.530875 810:0.233107 811:0.725406 812:0.190139 813:0.654642 814:0.658403 815:0.0803316 816:0.420008 817:0.171428 818:0.473035 819:0.245372 820:0.238317 821:0.515358 822:0.227848 823:0.704067 824:0.158912 825:0.657726 826:0.615474 827:0.769961 828:0.79349 829:0.45162 830:0.494347 831:0.505605 832:0.551323 833:0.197956 834:0.403939 835:0.292768 836:0.602441 837:0.251318 838:0.469161 
1.055203209909605 2:0.119565 8:0.67391 19:0.445654 26:0.445654 41:0.413038 63:0.695648 94:0.717388 101:0.43478 103:0.695648 111:0.804344 125:0.782598 131:0.445654 173:0.5 190:0.782598 229:0.760876 251:0.489132 257:0.695648 266:0.652177 275:0.760876 278:0.550717 282:0.695648 295:0.550717 318:0.652177 361:0.760876 389:0.630427 405:0.804344 429:0.36956 444:0.804344 454:0.630427 470:0.826075 482:0.456519 526:0.695648 536:0.5 562:0.550717 626:0.652177 692:0.630427 755:0.695648 766:0.804344 783:0.826075 809:0.374656 810:0.280533 811:0.393359 812:0.485524 813:0.515054 814:0.310383 815:0.468102 816:0.502511 817:0.735755 818:0.519243 819:0.757209 820:0.654803 821:0.543933 822:0.390335 823:0.25093 824:0.388054 825:0.308152 826:0.334552 827:0.689784 828:0.821555 829:0.668168 830:0.351784 831:0.299733 832:0.827842 833:0.0152695 834:0.00463118 835:0.355267 836:0.380621 837:0.422296 838:0.206133 
1.146479096630497 2:0.122221 7:0.355552 8:0.688883 15:0.422215 41:0.422215 57:0.733327 68:0.777782 92:0.755542 110:0.377771 143:0.733327 150:0.844429 153:0.755542 169:0.666667 189:0.844429 263:0.777782 270:0.333328 357:0.488879 358:0.822215 362:0.644433 401:0.755542 442:0.711104 455:0.422215 488:0.822215 505:0.799986 531:0.422215 545:0.477769 555:0.5 620:0.422215 621:1 639:0.633322 650:0.755542 656:0.799986 657:0.688883 663:0.755542 777:0.488879 787:0.755542 796:0.733327 799:0.488879 801:0.377771 809:0.459103 810:0.413761 811:0.305125 812:0.554656 813:0.680864 814:0.289375 815:0.654484 816:0.788725 817:0.864784 818:0.606214 819:0.559094 820:0.756838 821:0.420293 822:0.215208 823:0.386731 824:0.299752 825:0.305608 826:0.402476 827:0.2191 828:0.365597 829:0.296074 830:0.494632 831:0.175268 832:0.342178 833:0.739977 834:0.459613 835:0.689932 836:0.43951 837:0.784676 838:0.728291 
0.01771271179132676 1:0.633331 3:0.472222 5:0.453711 9:0.61111 39:0.638898 49:0.625011 67:0.61111 141:0.944444 146:1 160:0.888896 161:1 177:0.703704 191:0.61111 192:0.527778 218:0.703704 299:0.888896 333:0.833348 336:0.944444 369:0.703704 373:0.916675 416:0.666667 448:0.944444 530:0.736114 532:0.703704 575:1 591:0.944444 680:0.55556 717:0.513894 739:0.916675 774:0.513894 805:0.527778 809:0.63093 810:0.334426 811:0.701179 812:0.470125 813:0.502965 814:0.754458 815:0.378515 816:0.0836023 817:0.0373793 818:0.300839 819:0.30514 821:0.596331 822:0.693744 823:0.601935 824:0.878337 825:0.569884 826:0.691842 827:0.34752 828:0.723992 829:0.831982 830:0.31049 831:0.381293 832:0.87294 833:0.531587 834:0.18882 835:0.470047 836:0.270053 837:0.623023 838:0.464921 
2 19:0.143358 26:0.286716 33:0.16084 44:0.136364 45:0.216783 47:0.16084 49:0.157344 50:0.209792 53:0.108392 54:0.13986 61:0.143358 64:0.265732 67:0.153844 77:0.202796 92:0.23776 99:0.174825 103:0.223776 108:0.47552 110:0.11888 120:0.23776 121:0.223776 133:0.177155 134:0.216783 142:0.71328 147:0.248252 154:0.209792 155:0.216783 170:0.244759 171:0.177155 227:0.23776 230:0.216783 232:0.129371 237:0.129371 239:0.307696 241:0.209792 249:0.258741 253:0.202796 258:0.23776 274:0.125873 277:0.419584 281:0.209792 315:0.153844 325:0.265732 329:0.230769 333:0.419584 358:0.258741 363:0.177155 365:0.23776 373:0.230769 410:0.177155 423:0.23776 425:0.328672 461:0.23776 466:0.177155 468:0.132866 478:0.167831 483:0.125873 495:0.216783 502:0.230769 507:0.23776 508:0.244759 509:0.136364 512:0.258741 514:0.265732 534:0.433567 535:0.251746 542:0.122377 555:0.157344 558:0.177155 562:0.354309 567:0.16084 568:0.23776 570:0.335669 583:0.23776 591:0.23776 612:0.129371 635:0.251746 644:0.216783 652:0.23776 653:0.167831 659:0.244759 660:0.223776 665:0.223776 672:0.223776 679:0.23776 682:0.258741 688:0.265732 709:0.419584 714:0.258741 738:0.251746 753:0.83916 761:0.23776 781:0.251746 782:0.244759 803:0.244759 805:0.132866 809:0.620754 810:0.409701 811:0.483229 812:0.418724 813:0.699306 814:0.478506 815:0.40985 816:0.513895 817:0.368654 818:0.421238 819:0.468961 820:0.398442 821:0.506388 822:0.443398 823:0.635804 824:0.345286 825:0.445339 826:0.63785 827:0.332761 828:0.352085 829:0.372475 830:0.384717 831:0.307709 832:0.381594 833:0.562581 834:0.551212 835:0.550279 836:0.63767 837:0.489264 838:0.591834 
2 2:0.261905 15:0.452386 104:0.571435 153:0.809534 165:0.3889 222:0.857153 263:0.833363 269:0.904773 333:0.714307 355:0.904773 357:0.523815 394:0.571435 435:0.880971 443:0.904773 473:0.809534 482:1 515:0.58335 537:0.738111 620:0.452386 637:0.880971 663:0.809534 722:0.714307 755:0.76192 771:0.904773 808:0.464295 809:0.50831 810:0.470649 811:0.744711 812:0.587661 813:0.74409 814:0.623583 815:0.697146 816:0.675489 817:0.498559 818:0.576675 819:0.525915 820:0.511609 821:0.317964 822:0.339985 823:0.448398 824:0.574144 825:0.385942 826:0.491467 827:0.497079 828:0.523615 829:0.538078 830:0.644844 831:0.395779 832:0.549137 833:0.460043 834:0.379703 835:0.429338 836:0.724611 837:0.475354 838:0.436922 
0.2333149223424651 1:0.176746 3:0.395349 5:0.379851 52:0.395349 99:0.5814 111:0.860473 152:0.767449 235:0.883721 241:0.697687 272:0.837209 273:0.697687 326:0.837209 327:0.883721 353:0.44186 512:0.860473 537:0.720937 544:0.860473 559:0.511627 560:0.790698 579:1 589:0.883721 595:0.44186 602:0.883721 619:0.720937 631:0.697687 669:0.511627 685:0.55814 706:0.837209 755:0.744192 769:0.860473 778:0.5 783:0.883721 806:0.720937 809:0.403377 810:0.218202 811:0.542706 812:0.597723 813:0.288889 814:0.394226 815:0.385925 816:0.435539 817:0.485151 818:0.354934 819:0.736776 820:0.516716 821:0.60277 822:0.460162 823:0.652045 824:0.286093 825:0.361374 826:0.63012 827:0.307054 828:0.5468 829:0.357265 830:0.426618 831:0.450588 832:0.461706 833:0.278867 834:0.369208 835:0.434868 836:0.628203 837:0.255493 838:0.403366 
0.0940089990539788 2:0.289476 6:0.666667 7:0.421056 8:0.815798 40:0.842112 57:0.868429 74:0.605272 135:0.666667 141:0.894737 143:0.868429 155:0.815798 197:0.894737 200:0.947368 222:0.947368 238:0.763159 317:0.789488 336:0.894737 381:0.763159 407:0.666667 448:0.894737 468:0.5 493:0.921074 532:0.666667 581:1 583:0.894737 591:0.894737 676:0.763159 728:0.947368 739:0.868429 771:1 809:0.645132 810:0.547674 811:0.739117 812:0.457832 813:0.781948 814:0.847444 815:0.626652 816:0.52655 817:0.119873 818:0.627205 819:0.464054 820:0.123903 821:0.158352 822:0.167617 823:0.854692 824:0.340574 825:0.552631 826:0.724883 827:0.836823 828:0.662825 829:0.423976 830:0.459368 831:0.31681 832:0.642667 833:0.34827 834:0.514983 835:0.32789 836:0.621947 837:0.439976 838:0.284343 
1.77385503814611 2:0.26829 7:0.39024 10:0.39024 15:0.463406 16:0.463406 52:0.414627 75:0.512191 104:0.585355 121:0.78048 165:0.398373 219:0.78048 220:0.853663 230:0.756092 265:0.536575 281:0.731707 285:0.617875 410:0.617875 422:0.756092 454:0.707305 463:0.731707 476:0.853663 482:0.512191 537:0.756092 545:0.524381 558:0.617875 577:0.756092 578:0.451215 608:1 627:0.341458 678:0.853663 679:0.829253 799:0.536575 809:0.627485 810:0.470427 811:0.375884 812:0.753086 813:0.856838 814:0.430963 815:0.447516 816:0.438379 817:0.463187 818:0.58113 819:0.468083 820:0.494305 821:0.460987 822:0.41998 823:0.809228 824:0.552718 825:0.402917 826:0.701883 827:0.434954 828:0.497208 829:0.187436 830:0.42894 831:0.318743 832:0.215222 833:0.596984 834:0.635403 835:0.703605 836:0.47578 837:0.495883 838:0.776755 
0.9472679319531906 1:0.168887 2:0.244442 7:0.355552 9:0.488879 66:0.377771 104:0.533324 151:0.822215 174:0.777782 182:0.777782 184:0.666667 192:0.422215 222:0.799986 241:0.666667 315:0.488879 328:0.755542 342:0.488879 368:0.477769 397:0.599995 413:0.822215 424:0.533324 425:0.522219 454:0.644433 456:0.777782 457:0.488879 476:0.777782 479:0.488879 511:0.844429 553:0.799986 577:0.688883 589:0.844429 594:0.644433 608:0.911111 626:0.666667 634:0.799986 699:0.799986 745:0.711104 759:0.733327 795:0.777782 809:0.643674 810:0.453269 811:0.587036 812:0.61742 813:0.618608 814:0.501439 815:0.468676 816:0.450436 817:0.539437 818:0.450592 819:0.421902 820:0.626695 821:0.511056 822:0.511826 823:0.599589 824:0.467534 825:0.437403 826:0.519929 827:0.29942 828:0.260059 829:0.280802 830:0.343752 831:0.270995 832:0.320761 833:0.497523 834:0.720284 835:0.536823 836:0.774429 837:0.535365 838:0.68063 
1.521969494005714 39:0.489374 74:0.489374 103:0.680864 111:0.78725 211:0.744706 214:0.80852 228:0.691508 230:0.659588 248:0.489374 276:0.80852 325:0.80852 354:0.457452 365:0.723412 379:0.510644 417:0.765966 437:0.489374 453:0.723412 464:0.80852 480:0.723412 481:0.329794 483:0.382983 511:0.80852 567:0.489374 589:0.80852 594:0.617029 612:0.393625 618:0.85108 659:0.744706 677:0.80852 688:0.80852 738:0.765966 752:0.765966 757:0.468089 805:0.40426 809:0.414764 810:0.251286 811:0.301281 812:0.375612 813:0.505169 814:0.326986 815:0.430371 816:0.233561 817:0.557804 818:0.351861 819:0.670403 820:0.452658 821:0.68024 822:0.690721 823:0.658876 824:0.614759 825:0.504044 826:0.619757 827:0.208821 828:0.30538 829:0.212945 830:0.239476 831:0.152691 832:0.340249 833:0.501419 834:0.391698 835:0.734812 836:0.471337 837:0.603719 838:0.847373 
1.070231879834944 1:0.168887 2:0.366669 5:0.362962 6:0.562953 9:0.488879 17:0.366663 28:0.366663 48:0.488879 94:0.733327 131:0.455556 135:0.562953 173:0.511109 184:0.666667 190:0.799986 192:0.422215 273:0.666667 277:0.666667 284:0.533324 300:0.666667 317:0.666667 358:0.822215 414:0.755542 424:0.533324 444:0.822215 446:0.666667 459:0.533324 530:0.588881 545:0.477769 553:0.799986 559:0.488879 585:0.822215 587:0.566656 608:0.455556 628:0.533324 782:0.777782 783:0.844429 794:0.511109 807:0.644433 809:0.393315 810:0.174934 811:0.491602 812:0.66323 813:0.362374 814:0.354518 815:0.398837 816:0.388345 817:0.410756 818:0.307464 819:0.705168 820:0.516402 821:0.76825 822:0.676518 823:0.558386 824:0.319981 825:0.289616 826:0.735642 827:0.120401 829:0.497736 830:0.0997381 831:0.492794 832:0.306693 833:0.552745 834:0.425351 835:0.343651 836:0.382733 837:0.213411 838:0.441365 
2 9:0.196436 28:0.147329 39:0.205368 45:0.2768 47:0.205368 49:0.200905 67:0.196436 77:0.258939 94:0.294657 106:0.196436 119:0.214294 128:0.267873 130:0.267873 138:0.339299 167:0.267873 170:0.31252 172:0.218762 176:0.37501 177:0.2262 192:0.33928 203:0.339299 210:0.303584 218:0.2262 232:0.165187 247:0.214294 248:0.205368 249:0.330373 251:0.200905 254:0.330373 266:0.267873 275:0.31252 285:0.2262 313:0.321441 315:0.196436 327:0.339299 351:0.218762 352:0.258939 364:0.339299 374:0.321441 375:0.258939 380:0.31252 384:0.31252 386:0.2262 410:0.2262 416:0.214294 437:0.205368 458:0.267873 460:0.285728 467:0.267873 468:0.16965 469:0.303584 481:0.1384 483:0.160721 487:0.330373 495:0.2768 500:0.535715 520:0.366093 525:0.2262 536:0.205368 558:0.2262 559:0.196436 562:0.2262 580:0.294657 587:0.227688 590:0.348231 597:0.339299 622:0.2262 624:0.31252 630:0.31252 631:0.267873 641:0.321441 643:0.589282 652:0.303584 654:0.250014 690:0.535715 695:0.258939 706:0.321441 722:0.267873 769:0.330373 775:0.285728 778:0.191972 784:0.2768 786:0.218762 794:0.205368 808:0.174116 809:0.395328 810:0.181561 811:0.233103 812:0.30039 813:0.400655 814:0.187969 815:0.579429 816:0.580554 817:0.627124 818:0.356198 819:0.554959 820:0.574429 821:0.421327 822:0.47412 823:0.500411 824:0.50587 825:0.433507 826:0.499476 827:0.524276 828:0.487821 829:0.445593 830:0.429337 831:0.497984 832:0.497201 833:0.641562 834:0.586433 835:0.60358 836:0.740415 837:0.503205 838:0.685047 
0.07197546416325037 1:0.599997 16:0.5 26:0.539483 34:0.5 63:0.842112 115:0.973693 155:0.815798 184:0.789488 228:0.855276 229:0.921074 230:0.815798 260:1 278:0.666667 321:0.894737 330:0.842112 334:0.842112 354:0.565789 371:0.868429 380:0.921074 468:0.5 471:0.842112 546:0.921074 591:0.894737 594:0.763159 598:0.842112 658:0.855276 659:0.921074 703:0.789488 713:1 722:0.789488 740:0.868429 767:0.894737 809:0.244419 810:0.314118 811:0.0681232 812:0.662387 813:0.536561 814:0.0134012 815:0.770252 816:0.79318 817:0.8253 818:0.651181 819:0.748639 820:0.807807 821:0.48349 822:0.31255 823:0.386057 824:0.524958 825:0.295477 826:0.307715 827:0.514986 828:0.73596 829:0.48557 830:0.590118 831:0.387913 832:0.648936 833:0.164695 834:0.248323 835:0.558901 836:0.472943 837:0.426519 838:0.528207 
0.04873348652794866 1:0.223531 2:0.485293 6:0.745098 66:0.5 80:0.745098 110:1 131:0.602952 144:0.955897 184:0.882369 225:1 227:1 250:0.745098 336:1 366:1 368:0.632353 375:0.852942 477:0.745098 559:0.647058 668:1 705:0.970597 726:0.67648 751:1 761:1 809:0.647252 810:0.377509 811:0.410884 812:0.822078 813:0.594795 814:0.367256 815:0.362332 816:0.329716 817:0.552888 818:0.498432 819:0.371681 820:0.469945 821:0.762592 822:0.623855 823:0.688243 824:0.425408 825:0.378649 826:0.916735 827:0.446174 828:0.474255 829:0.318742 830:0.390144 831:0.476276 832:0.270375 833:0.31277 834:0.158819 835:0.436068 836:0.22864 837:0.522488 838:0.476714 
2 17:0.294641 24:0.642847 40:0.571424 72:0.589282 79:0.410713 92:0.607133 97:0.678561 112:0.452374 120:0.607133 121:0.571424 142:0.607133 149:0.571424 168:0.678561 253:0.517849 286:0.553568 331:0.625004 345:0.607133 373:0.589282 403:0.571424 406:0.589282 410:0.904747 420:0.607133 421:0.383922 442:0.571424 447:0.678561 525:0.452374 534:0.553568 557:0.571424 558:0.452374 564:0.642847 583:0.607133 585:0.66071 599:0.553568 605:0.607133 636:0.419641 644:0.553568 660:0.571424 672:0.571424 694:0.589282 719:0.678561 753:0.71428 768:0.678561 783:0.678561 787:0.607133 790:0.589282 803:0.625004 809:0.768519 810:0.407301 811:0.50403 812:0.373938 813:0.706345 814:0.431162 815:0.209029 816:0.645206 817:0.361576 818:0.518968 819:0.567381 820:0.42817 821:0.283041 822:0.341645 823:0.668477 824:0.272785 825:0.390328 826:0.776954 827:0.598738 828:0.48115 829:0.1831 830:0.396738 831:0.311474 832:0.120622 833:0.718821 834:0.743041 835:0.688442 836:0.726673 837:0.616334 838:0.807772 
2 1:0.386437 5:0.553672 10:0.271184 14:0.429371 29:0.491518 51:0.429371 63:0.542368 99:0.423725 100:0.576261 103:0.542368 114:0.644057 123:0.644057 124:0.644057 125:0.610159 130:0.508475 168:0.644057 184:0.508475 243:0.610159 250:0.429371 253:0.491518 290:0.627114 316:0.644057 331:0.593224 345:0.576261 361:0.593224 363:0.429371 377:0.694916 388:0.610159 408:0.542368 470:0.644057 481:0.26271 483:0.30508 494:0.254234 501:0.389829 503:0.644057 512:0.627114 533:0.508475 559:0.372874 572:0.364401 659:0.593224 679:0.576261 728:0.610159 786:0.415254 809:0.653497 810:0.374656 811:0.690318 812:0.390783 813:0.61518 814:0.664832 815:0.232597 816:0.417131 817:0.299986 818:0.6124 819:0.377527 820:0.379527 821:0.741208 822:0.377486 823:0.767548 824:0.422454 825:0.6966 826:0.668505 827:0.199868 828:0.415989 829:0.231803 830:0.557539 831:0.128247 832:0.246463 833:0.403266 834:0.431551 835:0.446218 836:0.315459 837:0.3307 838:0.558942 
1.136702802826197 1:0.286793 2:0.518871 3:0.320753 4:0.547168 7:0.301888 12:0.547168 23:0.566046 26:0.386798 52:0.320753 66:0.320753 67:0.415092 95:0.301888 104:0.452828 106:0.415092 108:0.641507 145:0.603776 154:0.566046 165:0.30818 191:0.415092 278:0.477986 360:0.716978 363:0.477986 403:0.603776 421:0.405659 463:0.566046 466:0.477986 502:0.622645 507:0.641507 528:0.679243 534:0.584909 542:0.330189 646:0.584909 656:0.679243 697:0.735853 726:0.433967 773:0.603776 780:0.679243 784:0.584909 809:0.639002 810:0.657922 811:0.629391 812:0.92727 813:0.804499 814:0.605964 815:0.550185 816:0.637427 817:0.547467 818:0.874784 819:0.535476 820:0.541464 821:0.300316 822:0.419734 823:0.351256 824:0.776749 825:0.39933 826:0.449797 827:0.431351 828:0.561557 829:0.632289 830:0.775454 831:0.331167 832:0.580185 833:0.54029 834:0.506179 835:0.405769 836:0.722488 837:0.455181 838:0.404312 
0.2706010293561859 2:0.305558 6:0.703704 7:0.444448 8:0.86112 13:0.805556 29:0.805556 42:1 80:0.703704 88:1 112:0.703704 122:1 134:0.86112 143:0.916675 206:0.703704 217:1 225:0.472222 248:0.638898 251:0.625011 296:0.703704 337:1 386:0.703704 422:0.86112 437:0.638898 497:0.944444 530:0.736114 562:0.703704 629:0.638898 692:0.805556 704:0.569455 767:0.944444 809:0.649396 810:0.569209 811:0.465743 812:0.706972 813:0.573775 814:0.461591 815:0.570902 816:0.475219 817:0.796945 818:0.4175 819:0.646496 820:0.617016 821:0.279503 822:0.431121 823:0.341477 824:0.706921 825:0.158839 826:0.440999 827:0.463764 828:0.408001 829:0.614514 830:0.542637 831:0.705084 832:0.575369 833:0.384163 834:0.376983 835:0.247802 836:0.553817 837:0.192219 838:0.317086 
0.3767343335981315 35:0.783778 80:0.684679 83:0.945959 197:0.918911 222:0.972964 223:0.891892 242:0.824321 245:0.684679 255:0.945959 296:0.684679 308:0.945959 344:0.945959 417:0.972964 419:0.837839 433:0.918911 461:0.918911 499:0.918911 544:1 561:0.891892 563:1 625:0.945959 685:0.648643 759:0.891892 786:0.662167 795:0.945959 809:0.627471 810:0.544782 811:0.831994 812:0.332582 813:0.694425 814:0.83221 815:0.422405 816:0.371567 817:0.0971706 818:0.316714 819:0.245888 820:0.102982 821:0.470555 822:0.533869 823:0.657212 824:0.586604 825:0.625787 826:0.642448 827:0.303155 828:0.386495 829:0.603541 830:0.238669 831:0.545988 832:0.744823 833:0.651278 834:0.824708 835:0.454526 836:0.720019 837:0.341608 838:0.451134 
1.204591942285604 1:0.894117 2:0.242649 10:0.470592 12:0.426471 14:0.372549 15:0.279412 16:0.279412 33:0.33824 35:0.426471 41:0.279412 49:0.330888 66:0.25 77:0.426471 104:0.352941 108:1 114:0.558824 124:0.558824 131:0.301476 189:0.558824 193:0.5 211:0.514718 229:0.514718 266:0.441184 270:0.220589 278:0.372549 337:0.529412 344:0.514718 368:0.316176 421:0.316176 429:0.25 452:0.5 463:0.441184 481:0.227943 487:0.544123 493:0.514718 528:0.529412 537:0.455887 558:0.372549 561:0.485298 566:0.470592 572:0.316176 602:0.558824 638:0.345593 667:0.544123 668:0.5 698:0.632353 746:0.426471 769:0.544123 775:0.470592 778:0.316176 788:0.330888 798:0.426471 809:0.762248 810:0.618003 811:0.778631 812:0.815638 813:0.883527 814:0.766371 815:0.431221 816:0.523967 817:0.431978 818:0.863223 819:0.485429 820:0.455555 821:0.336923 822:0.394436 823:0.378508 824:0.823354 825:0.383826 826:0.421276 827:0.495971 828:0.662895 829:0.538122 830:0.942628 831:0.339421 832:0.550836 833:0.562513 834:0.577782 835:0.568243 836:0.830734 837:0.514497 838:0.587973 
0.9935434013542738 46:0.684679 112:0.684679 117:0.837839 122:0.972964 132:0.684679 242:0.824321 279:1 290:1 295:0.684679 385:1 413:1 452:0.918911 476:0.945959 526:0.864864 539:1 547:0.972964 561:0.891892 592:0.635137 626:0.810818 644:0.837839 663:0.918911 667:1 685:0.648643 754:0.662167 764:0.891892 787:0.918911 804:0.891892 809:0.0771648 810:0.199076 811:0.433824 812:0.37958 813:0.525477 814:0.369594 815:0.714427 816:0.684551 817:0.574586 818:0.399208 819:0.515943 820:0.537992 821:0.408876 822:0.452614 823:0.548352 824:0.417828 825:0.453774 826:0.657853 827:0.380475 828:0.433095 829:0.469437 830:0.521463 831:0.310339 832:0.402807 833:0.469303 834:0.299115 835:0.382394 836:0.577976 837:0.433529 838:0.390636 
1.275275726614273 1:0.475 5:0.340275 9:0.458321 58:0.479162 172:0.510413 184:0.624996 198:1 200:0.749982 222:0.749982 262:0.791648 268:0.729166 307:0.729166 323:0.749982 374:0.749982 396:0.854162 399:1 424:0.499988 435:0.770822 449:0.874969 477:0.527765 484:0.68749 519:0.770822 522:0.770822 523:0.812488 532:0.527765 546:0.729166 570:1 590:0.812488 659:0.729166 696:0.770822 737:0.791648 791:0.83332 800:0.593736 809:0.162841 810:0.216985 811:0.489424 812:0.537902 813:0.429975 814:0.414078 815:1 816:0.732536 817:0.552048 818:0.531791 819:0.703509 820:0.501365 821:0.278083 822:0.393669 823:0.426175 824:0.356661 825:0.257116 826:0.612804 827:0.513738 828:0.515069 829:0.510169 830:0.377708 831:0.37506 832:0.521467 833:0.532199 834:0.388551 835:0.456303 836:0.440114 837:0.536814 838:0.364587 
0.08614057046509108 39:0.621625 48:0.594588 49:0.608114 70:0.684679 160:0.864864 240:0.684679 275:0.945959 299:0.864864 333:0.810818 416:0.648643 417:0.972964 483:0.486482 488:1 491:1 512:1 527:0.945959 567:0.621625 591:0.918911 595:0.513509 601:0.918911 613:1 648:0.837839 680:0.54054 720:0.972964 752:0.972964 761:0.918911 766:1 797:0.783778 805:0.513509 809:0.574713 810:0.419311 811:0.713601 812:0.331531 813:0.747896 814:0.701443 815:0.337177 816:0.234807 817:0.203864 818:0.43815 819:0.391946 820:0.134123 821:0.758034 822:0.704264 823:0.431926 824:0.552851 825:0.364867 826:0.643881 827:0.0920243 828:0.366333 829:0.752657 830:0.338782 831:0.540547 832:0.68813 833:0.586117 834:0.351207 835:0.243562 836:0.505657 837:0.378451 838:0.147057 
